digraph Tree {
node [shape=box, style="filled, rounded", color="black", fontname=helvetica] ;
edge [fontname=helvetica] ;
0 [label=<X<SUB>2</SUB> &le; 8.5<br/>gini = 0.901<br/>samples = 1200<br/>value = [107, 1, 47, 8, 2, 80, 6, 1, 1, 10, 20, 2, 228<br/>3, 5, 40, 122, 191, 7, 2, 25, 3, 14, 4, 8, 53<br/>6, 69, 76, 56, 3]>, fillcolor="#f8fefc"] ;
1 [label=<X<SUB>0</SUB> &le; 11.5<br/>gini = 0.898<br/>samples = 1072<br/>value = [93, 0, 47, 7, 2, 51, 6, 1, 1, 9, 18, 2, 219<br/>2, 5, 37, 111, 161, 7, 2, 23, 3, 13, 3, 8, 53<br/>4, 68, 73, 40, 3]>, fillcolor="#f2fdfa"] ;
0 -> 1 [labeldistance=2.5, labelangle=45, headlabel="True"] ;
2 [label=<X<SUB>0</SUB> &le; 10.5<br/>gini = 0.913<br/>samples = 368<br/>value = [35, 0, 19, 5, 1, 20, 3, 0, 1, 3, 7, 2, 43, 1<br/>2, 12, 45, 62, 5, 1, 11, 2, 6, 2, 0, 23, 1<br/>24, 16, 16, 0]>, fillcolor="#f5f7fe"] ;
1 -> 2 ;
3 [label=<X<SUB>1</SUB> &le; 3.5<br/>gini = 0.911<br/>samples = 317<br/>value = [33, 0, 15, 4, 1, 17, 3, 0, 1, 3, 6, 2, 36, 1<br/>2, 8, 33, 57, 5, 0, 9, 1, 5, 2, 0, 22, 1, 23<br/>13, 14, 0]>, fillcolor="#f0f4fd"] ;
2 -> 3 ;
4 [label=<X<SUB>2</SUB> &le; 0.5<br/>gini = 0.915<br/>samples = 180<br/>value = [21, 0, 9, 3, 1, 9, 2, 0, 0, 1, 2, 1, 16, 0<br/>0, 6, 25, 26, 4, 0, 5, 1, 3, 2, 0, 11, 0, 15<br/>8, 9, 0]>, fillcolor="#fefeff"] ;
3 -> 4 ;
5 [label=<X<SUB>1</SUB> &le; 2.5<br/>gini = 0.85<br/>samples = 20<br/>value = [6, 0, 2, 1, 0, 3, 0, 0, 0, 0, 0, 0, 1, 0<br/>0, 0, 1, 2, 0, 0, 0, 0, 0, 1, 0, 1, 0, 1<br/>1, 0, 0]>, fillcolor="#fae9dc"] ;
4 -> 5 ;
6 [label=<X<SUB>1</SUB> &le; 1.5<br/>gini = 0.782<br/>samples = 15<br/>value = [6, 0, 2, 0, 0, 0, 0, 0, 0, 0, 0, 0, 0, 0<br/>0, 0, 1, 2, 0, 0, 0, 0, 0, 1, 0, 1, 0, 1<br/>1, 0, 0]>, fillcolor="#f7d8c2"] ;
5 -> 6 ;
7 [label=<X<SUB>0</SUB> &le; 0.5<br/>gini = 0.84<br/>samples = 10<br/>value = [2, 0, 2, 0, 0, 0, 0, 0, 0, 0, 0, 0, 0, 0<br/>0, 0, 1, 2, 0, 0, 0, 0, 0, 1, 0, 1, 0, 1<br/>0, 0, 0]>, fillcolor="#ffffff"] ;
6 -> 7 ;
8 [label=<X<SUB>1</SUB> &le; 0.5<br/>gini = 0.5<br/>samples = 2<br/>value = [0, 0, 0, 0, 0, 0, 0, 0, 0, 0, 0, 0, 0, 0<br/>0, 0, 0, 0, 0, 0, 0, 0, 0, 0, 0, 1, 0, 1<br/>0, 0, 0]>, fillcolor="#ffffff"] ;
7 -> 8 ;
9 [label=<gini = 0.0<br/>samples = 1<br/>value = [0, 0, 0, 0, 0, 0, 0, 0, 0, 0, 0, 0, 0, 0<br/>0, 0, 0, 0, 0, 0, 0, 0, 0, 0, 0, 0, 0, 1<br/>0, 0, 0]>, fillcolor="#e53978"] ;
8 -> 9 ;
10 [label=<gini = 0.0<br/>samples = 1<br/>value = [0, 0, 0, 0, 0, 0, 0, 0, 0, 0, 0, 0, 0, 0<br/>0, 0, 0, 0, 0, 0, 0, 0, 0, 0, 0, 1, 0, 0<br/>0, 0, 0]>, fillcolor="#e539ba"] ;
8 -> 10 ;
11 [label=<X<SUB>0</SUB> &le; 3.0<br/>gini = 0.781<br/>samples = 8<br/>value = [2, 0, 2, 0, 0, 0, 0, 0, 0, 0, 0, 0, 0, 0<br/>0, 0, 1, 2, 0, 0, 0, 0, 0, 1, 0, 0, 0, 0<br/>0, 0, 0]>, fillcolor="#ffffff"] ;
7 -> 11 ;
12 [label=<gini = 0.5<br/>samples = 2<br/>value = [1, 0, 0, 0, 0, 0, 0, 0, 0, 0, 0, 0, 0, 0<br/>0, 0, 0, 1, 0, 0, 0, 0, 0, 0, 0, 0, 0, 0<br/>0, 0, 0]>, fillcolor="#ffffff"] ;
11 -> 12 ;
13 [label=<X<SUB>0</SUB> &le; 6.0<br/>gini = 0.778<br/>samples = 6<br/>value = [1, 0, 2, 0, 0, 0, 0, 0, 0, 0, 0, 0, 0, 0<br/>0, 0, 1, 1, 0, 0, 0, 0, 0, 1, 0, 0, 0, 0<br/>0, 0, 0]>, fillcolor="#faf3d7"] ;
11 -> 13 ;
14 [label=<gini = 0.0<br/>samples = 1<br/>value = [0, 0, 1, 0, 0, 0, 0, 0, 0, 0, 0, 0, 0, 0<br/>0, 0, 0, 0, 0, 0, 0, 0, 0, 0, 0, 0, 0, 0<br/>0, 0, 0]>, fillcolor="#e5c339"] ;
13 -> 14 ;
15 [label=<X<SUB>1</SUB> &le; 0.5<br/>gini = 0.8<br/>samples = 5<br/>value = [1, 0, 1, 0, 0, 0, 0, 0, 0, 0, 0, 0, 0, 0<br/>0, 0, 1, 1, 0, 0, 0, 0, 0, 1, 0, 0, 0, 0<br/>0, 0, 0]>, fillcolor="#ffffff"] ;
13 -> 15 ;
16 [label=<gini = 0.5<br/>samples = 2<br/>value = [1, 0, 1, 0, 0, 0, 0, 0, 0, 0, 0, 0, 0, 0<br/>0, 0, 0, 0, 0, 0, 0, 0, 0, 0, 0, 0, 0, 0<br/>0, 0, 0]>, fillcolor="#ffffff"] ;
15 -> 16 ;
17 [label=<X<SUB>0</SUB> &le; 7.5<br/>gini = 0.667<br/>samples = 3<br/>value = [0, 0, 0, 0, 0, 0, 0, 0, 0, 0, 0, 0, 0, 0<br/>0, 0, 1, 1, 0, 0, 0, 0, 0, 1, 0, 0, 0, 0<br/>0, 0, 0]>, fillcolor="#ffffff"] ;
15 -> 17 ;
18 [label=<gini = 0.0<br/>samples = 1<br/>value = [0, 0, 0, 0, 0, 0, 0, 0, 0, 0, 0, 0, 0, 0<br/>0, 0, 1, 0, 0, 0, 0, 0, 0, 0, 0, 0, 0, 0<br/>0, 0, 0]>, fillcolor="#398fe5"] ;
17 -> 18 ;
19 [label=<gini = 0.5<br/>samples = 2<br/>value = [0, 0, 0, 0, 0, 0, 0, 0, 0, 0, 0, 0, 0, 0<br/>0, 0, 0, 1, 0, 0, 0, 0, 0, 1, 0, 0, 0, 0<br/>0, 0, 0]>, fillcolor="#ffffff"] ;
17 -> 19 ;
20 [label=<X<SUB>0</SUB> &le; 4.5<br/>gini = 0.32<br/>samples = 5<br/>value = [4, 0, 0, 0, 0, 0, 0, 0, 0, 0, 0, 0, 0, 0<br/>0, 0, 0, 0, 0, 0, 0, 0, 0, 0, 0, 0, 0, 0<br/>1, 0, 0]>, fillcolor="#eca06a"] ;
6 -> 20 ;
21 [label=<gini = 0.444<br/>samples = 3<br/>value = [2, 0, 0, 0, 0, 0, 0, 0, 0, 0, 0, 0, 0, 0<br/>0, 0, 0, 0, 0, 0, 0, 0, 0, 0, 0, 0, 0, 0<br/>1, 0, 0]>, fillcolor="#f2c09c"] ;
20 -> 21 ;
22 [label=<gini = 0.0<br/>samples = 2<br/>value = [2, 0, 0, 0, 0, 0, 0, 0, 0, 0, 0, 0, 0, 0<br/>0, 0, 0, 0, 0, 0, 0, 0, 0, 0, 0, 0, 0, 0<br/>0, 0, 0]>, fillcolor="#e58139"] ;
20 -> 22 ;
23 [label=<X<SUB>0</SUB> &le; 8.5<br/>gini = 0.56<br/>samples = 5<br/>value = [0, 0, 0, 1, 0, 3, 0, 0, 0, 0, 0, 0, 1, 0<br/>0, 0, 0, 0, 0, 0, 0, 0, 0, 0, 0, 0, 0, 0<br/>0, 0, 0]>, fillcolor="#d1f29c"] ;
5 -> 23 ;
24 [label=<X<SUB>0</SUB> &le; 4.0<br/>gini = 0.5<br/>samples = 2<br/>value = [0, 0, 0, 1, 0, 0, 0, 0, 0, 0, 0, 0, 1, 0<br/>0, 0, 0, 0, 0, 0, 0, 0, 0, 0, 0, 0, 0, 0<br/>0, 0, 0]>, fillcolor="#ffffff"] ;
23 -> 24 ;
25 [label=<gini = 0.0<br/>samples = 1<br/>value = [0, 0, 0, 0, 0, 0, 0, 0, 0, 0, 0, 0, 1, 0<br/>0, 0, 0, 0, 0, 0, 0, 0, 0, 0, 0, 0, 0, 0<br/>0, 0, 0]>, fillcolor="#39e5b7"] ;
24 -> 25 ;
26 [label=<gini = 0.0<br/>samples = 1<br/>value = [0, 0, 0, 1, 0, 0, 0, 0, 0, 0, 0, 0, 0, 0<br/>0, 0, 0, 0, 0, 0, 0, 0, 0, 0, 0, 0, 0, 0<br/>0, 0, 0]>, fillcolor="#e5e239"] ;
24 -> 26 ;
27 [label=<gini = 0.0<br/>samples = 3<br/>value = [0, 0, 0, 0, 0, 3, 0, 0, 0, 0, 0, 0, 0, 0<br/>0, 0, 0, 0, 0, 0, 0, 0, 0, 0, 0, 0, 0, 0<br/>0, 0, 0]>, fillcolor="#a3e539"] ;
23 -> 27 ;
28 [label=<X<SUB>2</SUB> &le; 1.5<br/>gini = 0.913<br/>samples = 160<br/>value = [15, 0, 7, 2, 1, 6, 2, 0, 0, 1, 2, 1, 15, 0<br/>0, 6, 24, 24, 4, 0, 5, 1, 3, 1, 0, 10, 0, 14<br/>7, 9, 0]>, fillcolor="#ffffff"] ;
4 -> 28 ;
29 [label=<X<SUB>1</SUB> &le; 0.5<br/>gini = 0.82<br/>samples = 19<br/>value = [3, 0, 1, 0, 0, 1, 1, 0, 0, 0, 1, 0, 1, 0<br/>0, 1, 5, 5, 0, 0, 0, 0, 0, 0, 0, 0, 0, 0<br/>0, 0, 0]>, fillcolor="#ffffff"] ;
28 -> 29 ;
30 [label=<X<SUB>0</SUB> &le; 5.5<br/>gini = 0.444<br/>samples = 3<br/>value = [0, 0, 0, 0, 0, 0, 0, 0, 0, 0, 0, 0, 1, 0<br/>0, 0, 0, 2, 0, 0, 0, 0, 0, 0, 0, 0, 0, 0<br/>0, 0, 0]>, fillcolor="#9cb6f2"] ;
29 -> 30 ;
31 [label=<gini = 0.0<br/>samples = 1<br/>value = [0, 0, 0, 0, 0, 0, 0, 0, 0, 0, 0, 0, 0, 0<br/>0, 0, 0, 1, 0, 0, 0, 0, 0, 0, 0, 0, 0, 0<br/>0, 0, 0]>, fillcolor="#396de5"] ;
30 -> 31 ;
32 [label=<gini = 0.5<br/>samples = 2<br/>value = [0, 0, 0, 0, 0, 0, 0, 0, 0, 0, 0, 0, 1, 0<br/>0, 0, 0, 1, 0, 0, 0, 0, 0, 0, 0, 0, 0, 0<br/>0, 0, 0]>, fillcolor="#ffffff"] ;
30 -> 32 ;
33 [label=<X<SUB>0</SUB> &le; 4.5<br/>gini = 0.812<br/>samples = 16<br/>value = [3, 0, 1, 0, 0, 1, 1, 0, 0, 0, 1, 0, 0, 0<br/>0, 1, 5, 3, 0, 0, 0, 0, 0, 0, 0, 0, 0, 0<br/>0, 0, 0]>, fillcolor="#e1eefb"] ;
29 -> 33 ;
34 [label=<X<SUB>1</SUB> &le; 1.5<br/>gini = 0.84<br/>samples = 9<br/>value = [2, 0, 1, 0, 0, 1, 1, 0, 0, 0, 0, 0, 0, 0<br/>0, 1, 1, 2, 0, 0, 0, 0, 0, 0, 0, 0, 0, 0<br/>0, 0, 0]>, fillcolor="#ffffff"] ;
33 -> 34 ;
35 [label=<gini = 0.0<br/>samples = 1<br/>value = [0, 0, 0, 0, 0, 0, 0, 0, 0, 0, 0, 0, 0, 0<br/>0, 0, 1, 0, 0, 0, 0, 0, 0, 0, 0, 0, 0, 0<br/>0, 0, 0]>, fillcolor="#398fe5"] ;
34 -> 35 ;
36 [label=<X<SUB>0</SUB> &le; 1.5<br/>gini = 0.812<br/>samples = 8<br/>value = [2, 0, 1, 0, 0, 1, 1, 0, 0, 0, 0, 0, 0, 0<br/>0, 1, 0, 2, 0, 0, 0, 0, 0, 0, 0, 0, 0, 0<br/>0, 0, 0]>, fillcolor="#ffffff"] ;
34 -> 36 ;
37 [label=<X<SUB>1</SUB> &le; 2.5<br/>gini = 0.667<br/>samples = 3<br/>value = [0, 0, 1, 0, 0, 0, 1, 0, 0, 0, 0, 0, 0, 0<br/>0, 0, 0, 1, 0, 0, 0, 0, 0, 0, 0, 0, 0, 0<br/>0, 0, 0]>, fillcolor="#ffffff"] ;
36 -> 37 ;
38 [label=<gini = 0.0<br/>samples = 1<br/>value = [0, 0, 0, 0, 0, 0, 1, 0, 0, 0, 0, 0, 0, 0<br/>0, 0, 0, 0, 0, 0, 0, 0, 0, 0, 0, 0, 0, 0<br/>0, 0, 0]>, fillcolor="#83e539"] ;
37 -> 38 ;
39 [label=<gini = 0.5<br/>samples = 2<br/>value = [0, 0, 1, 0, 0, 0, 0, 0, 0, 0, 0, 0, 0, 0<br/>0, 0, 0, 1, 0, 0, 0, 0, 0, 0, 0, 0, 0, 0<br/>0, 0, 0]>, fillcolor="#ffffff"] ;
37 -> 39 ;
40 [label=<X<SUB>0</SUB> &le; 2.5<br/>gini = 0.72<br/>samples = 5<br/>value = [2, 0, 0, 0, 0, 1, 0, 0, 0, 0, 0, 0, 0, 0<br/>0, 1, 0, 1, 0, 0, 0, 0, 0, 0, 0, 0, 0, 0<br/>0, 0, 0]>, fillcolor="#f8e0ce"] ;
36 -> 40 ;
41 [label=<gini = 0.5<br/>samples = 2<br/>value = [1, 0, 0, 0, 0, 0, 0, 0, 0, 0, 0, 0, 0, 0<br/>0, 0, 0, 1, 0, 0, 0, 0, 0, 0, 0, 0, 0, 0<br/>0, 0, 0]>, fillcolor="#ffffff"] ;
40 -> 41 ;
42 [label=<X<SUB>0</SUB> &le; 3.5<br/>gini = 0.667<br/>samples = 3<br/>value = [1, 0, 0, 0, 0, 1, 0, 0, 0, 0, 0, 0, 0, 0<br/>0, 1, 0, 0, 0, 0, 0, 0, 0, 0, 0, 0, 0, 0<br/>0, 0, 0]>, fillcolor="#ffffff"] ;
40 -> 42 ;
43 [label=<gini = 0.5<br/>samples = 2<br/>value = [0, 0, 0, 0, 0, 1, 0, 0, 0, 0, 0, 0, 0, 0<br/>0, 1, 0, 0, 0, 0, 0, 0, 0, 0, 0, 0, 0, 0<br/>0, 0, 0]>, fillcolor="#ffffff"] ;
42 -> 43 ;
44 [label=<gini = 0.0<br/>samples = 1<br/>value = [1, 0, 0, 0, 0, 0, 0, 0, 0, 0, 0, 0, 0, 0<br/>0, 0, 0, 0, 0, 0, 0, 0, 0, 0, 0, 0, 0, 0<br/>0, 0, 0]>, fillcolor="#e58139"] ;
42 -> 44 ;
45 [label=<X<SUB>1</SUB> &le; 1.5<br/>gini = 0.612<br/>samples = 7<br/>value = [1, 0, 0, 0, 0, 0, 0, 0, 0, 0, 1, 0, 0, 0<br/>0, 0, 4, 1, 0, 0, 0, 0, 0, 0, 0, 0, 0, 0<br/>0, 0, 0]>, fillcolor="#9cc7f2"] ;
33 -> 45 ;
46 [label=<X<SUB>0</SUB> &le; 9.5<br/>gini = 0.5<br/>samples = 2<br/>value = [0, 0, 0, 0, 0, 0, 0, 0, 0, 0, 0, 0, 0, 0<br/>0, 0, 1, 1, 0, 0, 0, 0, 0, 0, 0, 0, 0, 0<br/>0, 0, 0]>, fillcolor="#ffffff"] ;
45 -> 46 ;
47 [label=<gini = 0.0<br/>samples = 1<br/>value = [0, 0, 0, 0, 0, 0, 0, 0, 0, 0, 0, 0, 0, 0<br/>0, 0, 0, 1, 0, 0, 0, 0, 0, 0, 0, 0, 0, 0<br/>0, 0, 0]>, fillcolor="#396de5"] ;
46 -> 47 ;
48 [label=<gini = 0.0<br/>samples = 1<br/>value = [0, 0, 0, 0, 0, 0, 0, 0, 0, 0, 0, 0, 0, 0<br/>0, 0, 1, 0, 0, 0, 0, 0, 0, 0, 0, 0, 0, 0<br/>0, 0, 0]>, fillcolor="#398fe5"] ;
46 -> 48 ;
49 [label=<X<SUB>0</SUB> &le; 6.5<br/>gini = 0.56<br/>samples = 5<br/>value = [1, 0, 0, 0, 0, 0, 0, 0, 0, 0, 1, 0, 0, 0<br/>0, 0, 3, 0, 0, 0, 0, 0, 0, 0, 0, 0, 0, 0<br/>0, 0, 0]>, fillcolor="#9cc7f2"] ;
45 -> 49 ;
50 [label=<X<SUB>1</SUB> &le; 2.5<br/>gini = 0.5<br/>samples = 2<br/>value = [1, 0, 0, 0, 0, 0, 0, 0, 0, 0, 0, 0, 0, 0<br/>0, 0, 1, 0, 0, 0, 0, 0, 0, 0, 0, 0, 0, 0<br/>0, 0, 0]>, fillcolor="#ffffff"] ;
49 -> 50 ;
51 [label=<gini = 0.0<br/>samples = 1<br/>value = [1, 0, 0, 0, 0, 0, 0, 0, 0, 0, 0, 0, 0, 0<br/>0, 0, 0, 0, 0, 0, 0, 0, 0, 0, 0, 0, 0, 0<br/>0, 0, 0]>, fillcolor="#e58139"] ;
50 -> 51 ;
52 [label=<gini = 0.0<br/>samples = 1<br/>value = [0, 0, 0, 0, 0, 0, 0, 0, 0, 0, 0, 0, 0, 0<br/>0, 0, 1, 0, 0, 0, 0, 0, 0, 0, 0, 0, 0, 0<br/>0, 0, 0]>, fillcolor="#398fe5"] ;
50 -> 52 ;
53 [label=<X<SUB>1</SUB> &le; 2.5<br/>gini = 0.444<br/>samples = 3<br/>value = [0, 0, 0, 0, 0, 0, 0, 0, 0, 0, 1, 0, 0, 0<br/>0, 0, 2, 0, 0, 0, 0, 0, 0, 0, 0, 0, 0, 0<br/>0, 0, 0]>, fillcolor="#9cc7f2"] ;
49 -> 53 ;
54 [label=<gini = 0.0<br/>samples = 2<br/>value = [0, 0, 0, 0, 0, 0, 0, 0, 0, 0, 0, 0, 0, 0<br/>0, 0, 2, 0, 0, 0, 0, 0, 0, 0, 0, 0, 0, 0<br/>0, 0, 0]>, fillcolor="#398fe5"] ;
53 -> 54 ;
55 [label=<gini = 0.0<br/>samples = 1<br/>value = [0, 0, 0, 0, 0, 0, 0, 0, 0, 0, 1, 0, 0, 0<br/>0, 0, 0, 0, 0, 0, 0, 0, 0, 0, 0, 0, 0, 0<br/>0, 0, 0]>, fillcolor="#39e575"] ;
53 -> 55 ;
56 [label=<X<SUB>0</SUB> &le; 0.5<br/>gini = 0.918<br/>samples = 141<br/>value = [12, 0, 6, 2, 1, 5, 1, 0, 0, 1, 1, 1, 14, 0<br/>0, 5, 19, 19, 4, 0, 5, 1, 3, 1, 0, 10, 0, 14<br/>7, 9, 0]>, fillcolor="#ffffff"] ;
28 -> 56 ;
57 [label=<X<SUB>2</SUB> &le; 4.5<br/>gini = 0.854<br/>samples = 23<br/>value = [1, 0, 0, 0, 0, 0, 0, 0, 0, 1, 1, 0, 1, 0<br/>0, 0, 6, 5, 0, 0, 1, 0, 0, 1, 0, 1, 0, 1<br/>2, 2, 0]>, fillcolor="#f4f9fe"] ;
56 -> 57 ;
58 [label=<X<SUB>2</SUB> &le; 2.5<br/>gini = 0.793<br/>samples = 13<br/>value = [1, 0, 0, 0, 0, 0, 0, 0, 0, 0, 1, 0, 0, 0<br/>0, 0, 5, 1, 0, 0, 1, 0, 0, 0, 0, 1, 0, 1<br/>2, 0, 0]>, fillcolor="#c9e0f8"] ;
57 -> 58 ;
59 [label=<X<SUB>1</SUB> &le; 0.5<br/>gini = 0.75<br/>samples = 4<br/>value = [1, 0, 0, 0, 0, 0, 0, 0, 0, 0, 0, 0, 0, 0<br/>0, 0, 0, 0, 0, 0, 0, 0, 0, 0, 0, 1, 0, 1<br/>1, 0, 0]>, fillcolor="#ffffff"] ;
58 -> 59 ;
60 [label=<gini = 0.5<br/>samples = 2<br/>value = [0, 0, 0, 0, 0, 0, 0, 0, 0, 0, 0, 0, 0, 0<br/>0, 0, 0, 0, 0, 0, 0, 0, 0, 0, 0, 1, 0, 0<br/>1, 0, 0]>, fillcolor="#ffffff"] ;
59 -> 60 ;
61 [label=<gini = 0.5<br/>samples = 2<br/>value = [1, 0, 0, 0, 0, 0, 0, 0, 0, 0, 0, 0, 0, 0<br/>0, 0, 0, 0, 0, 0, 0, 0, 0, 0, 0, 0, 0, 1<br/>0, 0, 0]>, fillcolor="#ffffff"] ;
59 -> 61 ;
62 [label=<X<SUB>2</SUB> &le; 3.5<br/>gini = 0.642<br/>samples = 9<br/>value = [0, 0, 0, 0, 0, 0, 0, 0, 0, 0, 1, 0, 0, 0<br/>0, 0, 5, 1, 0, 0, 1, 0, 0, 0, 0, 0, 0, 0<br/>1, 0, 0]>, fillcolor="#9cc7f2"] ;
58 -> 62 ;
63 [label=<X<SUB>1</SUB> &le; 2.5<br/>gini = 0.375<br/>samples = 4<br/>value = [0, 0, 0, 0, 0, 0, 0, 0, 0, 0, 0, 0, 0, 0<br/>0, 0, 3, 0, 0, 0, 1, 0, 0, 0, 0, 0, 0, 0<br/>0, 0, 0]>, fillcolor="#7bb4ee"] ;
62 -> 63 ;
64 [label=<X<SUB>1</SUB> &le; 1.0<br/>gini = 0.5<br/>samples = 2<br/>value = [0, 0, 0, 0, 0, 0, 0, 0, 0, 0, 0, 0, 0, 0<br/>0, 0, 1, 0, 0, 0, 1, 0, 0, 0, 0, 0, 0, 0<br/>0, 0, 0]>, fillcolor="#ffffff"] ;
63 -> 64 ;
65 [label=<gini = 0.0<br/>samples = 1<br/>value = [0, 0, 0, 0, 0, 0, 0, 0, 0, 0, 0, 0, 0, 0<br/>0, 0, 1, 0, 0, 0, 0, 0, 0, 0, 0, 0, 0, 0<br/>0, 0, 0]>, fillcolor="#398fe5"] ;
64 -> 65 ;
66 [label=<gini = 0.0<br/>samples = 1<br/>value = [0, 0, 0, 0, 0, 0, 0, 0, 0, 0, 0, 0, 0, 0<br/>0, 0, 0, 0, 0, 0, 1, 0, 0, 0, 0, 0, 0, 0<br/>0, 0, 0]>, fillcolor="#6a39e5"] ;
64 -> 66 ;
67 [label=<gini = 0.0<br/>samples = 2<br/>value = [0, 0, 0, 0, 0, 0, 0, 0, 0, 0, 0, 0, 0, 0<br/>0, 0, 2, 0, 0, 0, 0, 0, 0, 0, 0, 0, 0, 0<br/>0, 0, 0]>, fillcolor="#398fe5"] ;
63 -> 67 ;
68 [label=<X<SUB>1</SUB> &le; 2.5<br/>gini = 0.72<br/>samples = 5<br/>value = [0, 0, 0, 0, 0, 0, 0, 0, 0, 0, 1, 0, 0, 0<br/>0, 0, 2, 1, 0, 0, 0, 0, 0, 0, 0, 0, 0, 0<br/>1, 0, 0]>, fillcolor="#cee3f8"] ;
62 -> 68 ;
69 [label=<X<SUB>1</SUB> &le; 1.5<br/>gini = 0.444<br/>samples = 3<br/>value = [0, 0, 0, 0, 0, 0, 0, 0, 0, 0, 0, 0, 0, 0<br/>0, 0, 2, 1, 0, 0, 0, 0, 0, 0, 0, 0, 0, 0<br/>0, 0, 0]>, fillcolor="#9cc7f2"] ;
68 -> 69 ;
70 [label=<gini = 0.0<br/>samples = 1<br/>value = [0, 0, 0, 0, 0, 0, 0, 0, 0, 0, 0, 0, 0, 0<br/>0, 0, 1, 0, 0, 0, 0, 0, 0, 0, 0, 0, 0, 0<br/>0, 0, 0]>, fillcolor="#398fe5"] ;
69 -> 70 ;
71 [label=<gini = 0.5<br/>samples = 2<br/>value = [0, 0, 0, 0, 0, 0, 0, 0, 0, 0, 0, 0, 0, 0<br/>0, 0, 1, 1, 0, 0, 0, 0, 0, 0, 0, 0, 0, 0<br/>0, 0, 0]>, fillcolor="#ffffff"] ;
69 -> 71 ;
72 [label=<gini = 0.5<br/>samples = 2<br/>value = [0, 0, 0, 0, 0, 0, 0, 0, 0, 0, 1, 0, 0, 0<br/>0, 0, 0, 0, 0, 0, 0, 0, 0, 0, 0, 0, 0, 0<br/>1, 0, 0]>, fillcolor="#ffffff"] ;
68 -> 72 ;
73 [label=<X<SUB>2</SUB> &le; 6.5<br/>gini = 0.76<br/>samples = 10<br/>value = [0, 0, 0, 0, 0, 0, 0, 0, 0, 1, 0, 0, 1, 0<br/>0, 0, 1, 4, 0, 0, 0, 0, 0, 1, 0, 0, 0, 0<br/>0, 2, 0]>, fillcolor="#cedaf8"] ;
57 -> 73 ;
74 [label=<X<SUB>1</SUB> &le; 0.5<br/>gini = 0.444<br/>samples = 3<br/>value = [0, 0, 0, 0, 0, 0, 0, 0, 0, 1, 0, 0, 0, 0<br/>0, 0, 0, 2, 0, 0, 0, 0, 0, 0, 0, 0, 0, 0<br/>0, 0, 0]>, fillcolor="#9cb6f2"] ;
73 -> 74 ;
75 [label=<gini = 0.0<br/>samples = 1<br/>value = [0, 0, 0, 0, 0, 0, 0, 0, 0, 0, 0, 0, 0, 0<br/>0, 0, 0, 1, 0, 0, 0, 0, 0, 0, 0, 0, 0, 0<br/>0, 0, 0]>, fillcolor="#396de5"] ;
74 -> 75 ;
76 [label=<X<SUB>1</SUB> &le; 2.0<br/>gini = 0.5<br/>samples = 2<br/>value = [0, 0, 0, 0, 0, 0, 0, 0, 0, 1, 0, 0, 0, 0<br/>0, 0, 0, 1, 0, 0, 0, 0, 0, 0, 0, 0, 0, 0<br/>0, 0, 0]>, fillcolor="#ffffff"] ;
74 -> 76 ;
77 [label=<gini = 0.0<br/>samples = 1<br/>value = [0, 0, 0, 0, 0, 0, 0, 0, 0, 1, 0, 0, 0, 0<br/>0, 0, 0, 0, 0, 0, 0, 0, 0, 0, 0, 0, 0, 0<br/>0, 0, 0]>, fillcolor="#39e553"] ;
76 -> 77 ;
78 [label=<gini = 0.0<br/>samples = 1<br/>value = [0, 0, 0, 0, 0, 0, 0, 0, 0, 0, 0, 0, 0, 0<br/>0, 0, 0, 1, 0, 0, 0, 0, 0, 0, 0, 0, 0, 0<br/>0, 0, 0]>, fillcolor="#396de5"] ;
76 -> 78 ;
79 [label=<X<SUB>1</SUB> &le; 1.5<br/>gini = 0.776<br/>samples = 7<br/>value = [0, 0, 0, 0, 0, 0, 0, 0, 0, 0, 0, 0, 1, 0<br/>0, 0, 1, 2, 0, 0, 0, 0, 0, 1, 0, 0, 0, 0<br/>0, 2, 0]>, fillcolor="#ffffff"] ;
73 -> 79 ;
80 [label=<gini = 0.5<br/>samples = 2<br/>value = [0, 0, 0, 0, 0, 0, 0, 0, 0, 0, 0, 0, 0, 0<br/>0, 0, 0, 1, 0, 0, 0, 0, 0, 1, 0, 0, 0, 0<br/>0, 0, 0]>, fillcolor="#ffffff"] ;
79 -> 80 ;
81 [label=<X<SUB>2</SUB> &le; 7.5<br/>gini = 0.72<br/>samples = 5<br/>value = [0, 0, 0, 0, 0, 0, 0, 0, 0, 0, 0, 0, 1, 0<br/>0, 0, 1, 1, 0, 0, 0, 0, 0, 0, 0, 0, 0, 0<br/>0, 2, 0]>, fillcolor="#f8cece"] ;
79 -> 81 ;
82 [label=<gini = 0.625<br/>samples = 4<br/>value = [0, 0, 0, 0, 0, 0, 0, 0, 0, 0, 0, 0, 1, 0<br/>0, 0, 1, 0, 0, 0, 0, 0, 0, 0, 0, 0, 0, 0<br/>0, 2, 0]>, fillcolor="#f6bebd"] ;
81 -> 82 ;
83 [label=<gini = 0.0<br/>samples = 1<br/>value = [0, 0, 0, 0, 0, 0, 0, 0, 0, 0, 0, 0, 0, 0<br/>0, 0, 0, 1, 0, 0, 0, 0, 0, 0, 0, 0, 0, 0<br/>0, 0, 0]>, fillcolor="#396de5"] ;
81 -> 83 ;
84 [label=<X<SUB>0</SUB> &le; 7.5<br/>gini = 0.92<br/>samples = 118<br/>value = [11, 0, 6, 2, 1, 5, 1, 0, 0, 0, 0, 1, 13, 0<br/>0, 5, 13, 14, 4, 0, 4, 1, 3, 0, 0, 9, 0, 13<br/>5, 7, 0]>, fillcolor="#fdfeff"] ;
56 -> 84 ;
85 [label=<X<SUB>1</SUB> &le; 2.5<br/>gini = 0.926<br/>samples = 60<br/>value = [6, 0, 3, 0, 1, 3, 1, 0, 0, 0, 0, 1, 6, 0<br/>0, 3, 3, 4, 4, 0, 4, 1, 3, 0, 0, 4, 0, 8<br/>1, 4, 0]>, fillcolor="#fef8fa"] ;
84 -> 85 ;
86 [label=<X<SUB>0</SUB> &le; 6.5<br/>gini = 0.922<br/>samples = 50<br/>value = [4, 0, 3, 0, 0, 2, 1, 0, 0, 0, 0, 1, 6, 0<br/>0, 3, 3, 3, 4, 0, 4, 1, 3, 0, 0, 3, 0, 7<br/>1, 1, 0]>, fillcolor="#fefafc"] ;
85 -> 86 ;
87 [label=<X<SUB>0</SUB> &le; 1.5<br/>gini = 0.921<br/>samples = 41<br/>value = [4, 0, 3, 0, 0, 1, 1, 0, 0, 0, 0, 1, 3, 0<br/>0, 1, 3, 3, 3, 0, 4, 1, 2, 0, 0, 3, 0, 6<br/>1, 1, 0]>, fillcolor="#fef4f8"] ;
86 -> 87 ;
88 [label=<X<SUB>1</SUB> &le; 1.5<br/>gini = 0.862<br/>samples = 15<br/>value = [2, 0, 0, 0, 0, 0, 1, 0, 0, 0, 0, 0, 3, 0<br/>0, 0, 0, 3, 1, 0, 2, 0, 1, 0, 0, 1, 0, 1<br/>0, 0, 0]>, fillcolor="#ffffff"] ;
87 -> 88 ;
89 [label=<X<SUB>2</SUB> &le; 2.5<br/>gini = 0.778<br/>samples = 6<br/>value = [1, 0, 0, 0, 0, 0, 0, 0, 0, 0, 0, 0, 0, 0<br/>0, 0, 0, 1, 1, 0, 2, 0, 1, 0, 0, 0, 0, 0<br/>0, 0, 0]>, fillcolor="#e1d7fa"] ;
88 -> 89 ;
90 [label=<X<SUB>1</SUB> &le; 0.5<br/>gini = 0.5<br/>samples = 2<br/>value = [0, 0, 0, 0, 0, 0, 0, 0, 0, 0, 0, 0, 0, 0<br/>0, 0, 0, 1, 0, 0, 0, 0, 1, 0, 0, 0, 0, 0<br/>0, 0, 0]>, fillcolor="#ffffff"] ;
89 -> 90 ;
91 [label=<gini = 0.0<br/>samples = 1<br/>value = [0, 0, 0, 0, 0, 0, 0, 0, 0, 0, 0, 0, 0, 0<br/>0, 0, 0, 1, 0, 0, 0, 0, 0, 0, 0, 0, 0, 0<br/>0, 0, 0]>, fillcolor="#396de5"] ;
90 -> 91 ;
92 [label=<gini = 0.0<br/>samples = 1<br/>value = [0, 0, 0, 0, 0, 0, 0, 0, 0, 0, 0, 0, 0, 0<br/>0, 0, 0, 0, 0, 0, 0, 0, 1, 0, 0, 0, 0, 0<br/>0, 0, 0]>, fillcolor="#ac39e5"] ;
90 -> 92 ;
93 [label=<X<SUB>2</SUB> &le; 6.0<br/>gini = 0.625<br/>samples = 4<br/>value = [1, 0, 0, 0, 0, 0, 0, 0, 0, 0, 0, 0, 0, 0<br/>0, 0, 0, 0, 1, 0, 2, 0, 0, 0, 0, 0, 0, 0<br/>0, 0, 0]>, fillcolor="#cdbdf6"] ;
89 -> 93 ;
94 [label=<X<SUB>2</SUB> &le; 3.5<br/>gini = 0.444<br/>samples = 3<br/>value = [0, 0, 0, 0, 0, 0, 0, 0, 0, 0, 0, 0, 0, 0<br/>0, 0, 0, 0, 1, 0, 2, 0, 0, 0, 0, 0, 0, 0<br/>0, 0, 0]>, fillcolor="#b49cf2"] ;
93 -> 94 ;
95 [label=<gini = 0.0<br/>samples = 1<br/>value = [0, 0, 0, 0, 0, 0, 0, 0, 0, 0, 0, 0, 0, 0<br/>0, 0, 0, 0, 0, 0, 1, 0, 0, 0, 0, 0, 0, 0<br/>0, 0, 0]>, fillcolor="#6a39e5"] ;
94 -> 95 ;
96 [label=<X<SUB>2</SUB> &le; 4.5<br/>gini = 0.5<br/>samples = 2<br/>value = [0, 0, 0, 0, 0, 0, 0, 0, 0, 0, 0, 0, 0, 0<br/>0, 0, 0, 0, 1, 0, 1, 0, 0, 0, 0, 0, 0, 0<br/>0, 0, 0]>, fillcolor="#ffffff"] ;
94 -> 96 ;
97 [label=<gini = 0.0<br/>samples = 1<br/>value = [0, 0, 0, 0, 0, 0, 0, 0, 0, 0, 0, 0, 0, 0<br/>0, 0, 0, 0, 1, 0, 0, 0, 0, 0, 0, 0, 0, 0<br/>0, 0, 0]>, fillcolor="#394ae5"] ;
96 -> 97 ;
98 [label=<gini = 0.0<br/>samples = 1<br/>value = [0, 0, 0, 0, 0, 0, 0, 0, 0, 0, 0, 0, 0, 0<br/>0, 0, 0, 0, 0, 0, 1, 0, 0, 0, 0, 0, 0, 0<br/>0, 0, 0]>, fillcolor="#6a39e5"] ;
96 -> 98 ;
99 [label=<gini = 0.0<br/>samples = 1<br/>value = [1, 0, 0, 0, 0, 0, 0, 0, 0, 0, 0, 0, 0, 0<br/>0, 0, 0, 0, 0, 0, 0, 0, 0, 0, 0, 0, 0, 0<br/>0, 0, 0]>, fillcolor="#e58139"] ;
93 -> 99 ;
100 [label=<X<SUB>2</SUB> &le; 3.5<br/>gini = 0.79<br/>samples = 9<br/>value = [1, 0, 0, 0, 0, 0, 1, 0, 0, 0, 0, 0, 3, 0<br/>0, 0, 0, 2, 0, 0, 0, 0, 0, 0, 0, 1, 0, 1<br/>0, 0, 0]>, fillcolor="#e3fbf5"] ;
88 -> 100 ;
101 [label=<gini = 0.5<br/>samples = 2<br/>value = [0, 0, 0, 0, 0, 0, 1, 0, 0, 0, 0, 0, 0, 0<br/>0, 0, 0, 0, 0, 0, 0, 0, 0, 0, 0, 0, 0, 1<br/>0, 0, 0]>, fillcolor="#ffffff"] ;
100 -> 101 ;
102 [label=<X<SUB>2</SUB> &le; 5.5<br/>gini = 0.694<br/>samples = 7<br/>value = [1, 0, 0, 0, 0, 0, 0, 0, 0, 0, 0, 0, 3, 0<br/>0, 0, 0, 2, 0, 0, 0, 0, 0, 0, 0, 1, 0, 0<br/>0, 0, 0]>, fillcolor="#d7faf1"] ;
100 -> 102 ;
103 [label=<gini = 0.667<br/>samples = 3<br/>value = [1, 0, 0, 0, 0, 0, 0, 0, 0, 0, 0, 0, 1, 0<br/>0, 0, 0, 1, 0, 0, 0, 0, 0, 0, 0, 0, 0, 0<br/>0, 0, 0]>, fillcolor="#ffffff"] ;
102 -> 103 ;
104 [label=<X<SUB>2</SUB> &le; 7.5<br/>gini = 0.625<br/>samples = 4<br/>value = [0, 0, 0, 0, 0, 0, 0, 0, 0, 0, 0, 0, 2, 0<br/>0, 0, 0, 1, 0, 0, 0, 0, 0, 0, 0, 1, 0, 0<br/>0, 0, 0]>, fillcolor="#bdf6e7"] ;
102 -> 104 ;
105 [label=<gini = 0.5<br/>samples = 2<br/>value = [0, 0, 0, 0, 0, 0, 0, 0, 0, 0, 0, 0, 1, 0<br/>0, 0, 0, 0, 0, 0, 0, 0, 0, 0, 0, 1, 0, 0<br/>0, 0, 0]>, fillcolor="#ffffff"] ;
104 -> 105 ;
106 [label=<gini = 0.5<br/>samples = 2<br/>value = [0, 0, 0, 0, 0, 0, 0, 0, 0, 0, 0, 0, 1, 0<br/>0, 0, 0, 1, 0, 0, 0, 0, 0, 0, 0, 0, 0, 0<br/>0, 0, 0]>, fillcolor="#ffffff"] ;
104 -> 106 ;
107 [label=<X<SUB>1</SUB> &le; 0.5<br/>gini = 0.902<br/>samples = 26<br/>value = [2, 0, 3, 0, 0, 1, 0, 0, 0, 0, 0, 1, 0, 0<br/>0, 1, 3, 0, 2, 0, 2, 1, 1, 0, 0, 2, 0, 5<br/>1, 1, 0]>, fillcolor="#fdeef3"] ;
87 -> 107 ;
108 [label=<X<SUB>2</SUB> &le; 7.5<br/>gini = 0.735<br/>samples = 7<br/>value = [0, 0, 0, 0, 0, 1, 0, 0, 0, 0, 0, 0, 0, 0<br/>0, 0, 3, 0, 1, 0, 0, 0, 0, 0, 0, 1, 0, 1<br/>0, 0, 0]>, fillcolor="#bddaf6"] ;
107 -> 108 ;
109 [label=<X<SUB>0</SUB> &le; 3.5<br/>gini = 0.8<br/>samples = 5<br/>value = [0, 0, 0, 0, 0, 1, 0, 0, 0, 0, 0, 0, 0, 0<br/>0, 0, 1, 0, 1, 0, 0, 0, 0, 0, 0, 1, 0, 1<br/>0, 0, 0]>, fillcolor="#ffffff"] ;
108 -> 109 ;
110 [label=<gini = 0.0<br/>samples = 1<br/>value = [0, 0, 0, 0, 0, 0, 0, 0, 0, 0, 0, 0, 0, 0<br/>0, 0, 1, 0, 0, 0, 0, 0, 0, 0, 0, 0, 0, 0<br/>0, 0, 0]>, fillcolor="#398fe5"] ;
109 -> 110 ;
111 [label=<X<SUB>0</SUB> &le; 5.5<br/>gini = 0.75<br/>samples = 4<br/>value = [0, 0, 0, 0, 0, 1, 0, 0, 0, 0, 0, 0, 0, 0<br/>0, 0, 0, 0, 1, 0, 0, 0, 0, 0, 0, 1, 0, 1<br/>0, 0, 0]>, fillcolor="#ffffff"] ;
109 -> 111 ;
112 [label=<X<SUB>2</SUB> &le; 3.5<br/>gini = 0.667<br/>samples = 3<br/>value = [0, 0, 0, 0, 0, 1, 0, 0, 0, 0, 0, 0, 0, 0<br/>0, 0, 0, 0, 0, 0, 0, 0, 0, 0, 0, 1, 0, 1<br/>0, 0, 0]>, fillcolor="#ffffff"] ;
111 -> 112 ;
113 [label=<gini = 0.0<br/>samples = 1<br/>value = [0, 0, 0, 0, 0, 1, 0, 0, 0, 0, 0, 0, 0, 0<br/>0, 0, 0, 0, 0, 0, 0, 0, 0, 0, 0, 0, 0, 0<br/>0, 0, 0]>, fillcolor="#a3e539"] ;
112 -> 113 ;
114 [label=<X<SUB>2</SUB> &le; 5.5<br/>gini = 0.5<br/>samples = 2<br/>value = [0, 0, 0, 0, 0, 0, 0, 0, 0, 0, 0, 0, 0, 0<br/>0, 0, 0, 0, 0, 0, 0, 0, 0, 0, 0, 1, 0, 1<br/>0, 0, 0]>, fillcolor="#ffffff"] ;
112 -> 114 ;
115 [label=<gini = 0.0<br/>samples = 1<br/>value = [0, 0, 0, 0, 0, 0, 0, 0, 0, 0, 0, 0, 0, 0<br/>0, 0, 0, 0, 0, 0, 0, 0, 0, 0, 0, 0, 0, 1<br/>0, 0, 0]>, fillcolor="#e53978"] ;
114 -> 115 ;
116 [label=<gini = 0.0<br/>samples = 1<br/>value = [0, 0, 0, 0, 0, 0, 0, 0, 0, 0, 0, 0, 0, 0<br/>0, 0, 0, 0, 0, 0, 0, 0, 0, 0, 0, 1, 0, 0<br/>0, 0, 0]>, fillcolor="#e539ba"] ;
114 -> 116 ;
117 [label=<gini = 0.0<br/>samples = 1<br/>value = [0, 0, 0, 0, 0, 0, 0, 0, 0, 0, 0, 0, 0, 0<br/>0, 0, 0, 0, 1, 0, 0, 0, 0, 0, 0, 0, 0, 0<br/>0, 0, 0]>, fillcolor="#394ae5"] ;
111 -> 117 ;
118 [label=<gini = 0.0<br/>samples = 2<br/>value = [0, 0, 0, 0, 0, 0, 0, 0, 0, 0, 0, 0, 0, 0<br/>0, 0, 2, 0, 0, 0, 0, 0, 0, 0, 0, 0, 0, 0<br/>0, 0, 0]>, fillcolor="#398fe5"] ;
108 -> 118 ;
119 [label=<X<SUB>1</SUB> &le; 1.5<br/>gini = 0.886<br/>samples = 19<br/>value = [2, 0, 3, 0, 0, 0, 0, 0, 0, 0, 0, 1, 0, 0<br/>0, 1, 0, 0, 1, 0, 2, 1, 1, 0, 0, 1, 0, 4<br/>1, 1, 0]>, fillcolor="#fdf3f7"] ;
107 -> 119 ;
120 [label=<X<SUB>2</SUB> &le; 3.5<br/>gini = 0.815<br/>samples = 9<br/>value = [0, 0, 3, 0, 0, 0, 0, 0, 0, 0, 0, 0, 0, 0<br/>0, 1, 0, 0, 0, 0, 1, 1, 0, 0, 0, 1, 0, 1<br/>0, 1, 0]>, fillcolor="#f8f0ce"] ;
119 -> 120 ;
121 [label=<X<SUB>0</SUB> &le; 3.0<br/>gini = 0.5<br/>samples = 2<br/>value = [0, 0, 0, 0, 0, 0, 0, 0, 0, 0, 0, 0, 0, 0<br/>0, 1, 0, 0, 0, 0, 0, 0, 0, 0, 0, 1, 0, 0<br/>0, 0, 0]>, fillcolor="#ffffff"] ;
120 -> 121 ;
122 [label=<gini = 0.0<br/>samples = 1<br/>value = [0, 0, 0, 0, 0, 0, 0, 0, 0, 0, 0, 0, 0, 0<br/>0, 1, 0, 0, 0, 0, 0, 0, 0, 0, 0, 0, 0, 0<br/>0, 0, 0]>, fillcolor="#39aee5"] ;
121 -> 122 ;
123 [label=<gini = 0.0<br/>samples = 1<br/>value = [0, 0, 0, 0, 0, 0, 0, 0, 0, 0, 0, 0, 0, 0<br/>0, 0, 0, 0, 0, 0, 0, 0, 0, 0, 0, 1, 0, 0<br/>0, 0, 0]>, fillcolor="#e539ba"] ;
121 -> 123 ;
124 [label=<X<SUB>2</SUB> &le; 7.5<br/>gini = 0.735<br/>samples = 7<br/>value = [0, 0, 3, 0, 0, 0, 0, 0, 0, 0, 0, 0, 0, 0<br/>0, 0, 0, 0, 0, 0, 1, 1, 0, 0, 0, 0, 0, 1<br/>0, 1, 0]>, fillcolor="#f6ebbd"] ;
120 -> 124 ;
125 [label=<X<SUB>0</SUB> &le; 5.5<br/>gini = 0.667<br/>samples = 6<br/>value = [0, 0, 3, 0, 0, 0, 0, 0, 0, 0, 0, 0, 0, 0<br/>0, 0, 0, 0, 0, 0, 1, 1, 0, 0, 0, 0, 0, 0<br/>0, 1, 0]>, fillcolor="#f5e7b0"] ;
124 -> 125 ;
126 [label=<X<SUB>0</SUB> &le; 4.5<br/>gini = 0.667<br/>samples = 3<br/>value = [0, 0, 1, 0, 0, 0, 0, 0, 0, 0, 0, 0, 0, 0<br/>0, 0, 0, 0, 0, 0, 1, 1, 0, 0, 0, 0, 0, 0<br/>0, 0, 0]>, fillcolor="#ffffff"] ;
125 -> 126 ;
127 [label=<X<SUB>2</SUB> &le; 6.0<br/>gini = 0.5<br/>samples = 2<br/>value = [0, 0, 1, 0, 0, 0, 0, 0, 0, 0, 0, 0, 0, 0<br/>0, 0, 0, 0, 0, 0, 0, 1, 0, 0, 0, 0, 0, 0<br/>0, 0, 0]>, fillcolor="#ffffff"] ;
126 -> 127 ;
128 [label=<gini = 0.0<br/>samples = 1<br/>value = [0, 0, 0, 0, 0, 0, 0, 0, 0, 0, 0, 0, 0, 0<br/>0, 0, 0, 0, 0, 0, 0, 1, 0, 0, 0, 0, 0, 0<br/>0, 0, 0]>, fillcolor="#8939e5"] ;
127 -> 128 ;
129 [label=<gini = 0.0<br/>samples = 1<br/>value = [0, 0, 1, 0, 0, 0, 0, 0, 0, 0, 0, 0, 0, 0<br/>0, 0, 0, 0, 0, 0, 0, 0, 0, 0, 0, 0, 0, 0<br/>0, 0, 0]>, fillcolor="#e5c339"] ;
127 -> 129 ;
130 [label=<gini = 0.0<br/>samples = 1<br/>value = [0, 0, 0, 0, 0, 0, 0, 0, 0, 0, 0, 0, 0, 0<br/>0, 0, 0, 0, 0, 0, 1, 0, 0, 0, 0, 0, 0, 0<br/>0, 0, 0]>, fillcolor="#6a39e5"] ;
126 -> 130 ;
131 [label=<X<SUB>2</SUB> &le; 6.5<br/>gini = 0.444<br/>samples = 3<br/>value = [0, 0, 2, 0, 0, 0, 0, 0, 0, 0, 0, 0, 0, 0<br/>0, 0, 0, 0, 0, 0, 0, 0, 0, 0, 0, 0, 0, 0<br/>0, 1, 0]>, fillcolor="#f2e19c"] ;
125 -> 131 ;
132 [label=<gini = 0.0<br/>samples = 2<br/>value = [0, 0, 2, 0, 0, 0, 0, 0, 0, 0, 0, 0, 0, 0<br/>0, 0, 0, 0, 0, 0, 0, 0, 0, 0, 0, 0, 0, 0<br/>0, 0, 0]>, fillcolor="#e5c339"] ;
131 -> 132 ;
133 [label=<gini = 0.0<br/>samples = 1<br/>value = [0, 0, 0, 0, 0, 0, 0, 0, 0, 0, 0, 0, 0, 0<br/>0, 0, 0, 0, 0, 0, 0, 0, 0, 0, 0, 0, 0, 0<br/>0, 1, 0]>, fillcolor="#e53c39"] ;
131 -> 133 ;
134 [label=<gini = 0.0<br/>samples = 1<br/>value = [0, 0, 0, 0, 0, 0, 0, 0, 0, 0, 0, 0, 0, 0<br/>0, 0, 0, 0, 0, 0, 0, 0, 0, 0, 0, 0, 0, 1<br/>0, 0, 0]>, fillcolor="#e53978"] ;
124 -> 134 ;
135 [label=<X<SUB>2</SUB> &le; 6.0<br/>gini = 0.82<br/>samples = 10<br/>value = [2, 0, 0, 0, 0, 0, 0, 0, 0, 0, 0, 1, 0, 0<br/>0, 0, 0, 0, 1, 0, 1, 0, 1, 0, 0, 0, 0, 3<br/>1, 0, 0]>, fillcolor="#fce6ee"] ;
119 -> 135 ;
136 [label=<X<SUB>2</SUB> &le; 3.5<br/>gini = 0.816<br/>samples = 7<br/>value = [0, 0, 0, 0, 0, 0, 0, 0, 0, 0, 0, 1, 0, 0<br/>0, 0, 0, 0, 1, 0, 1, 0, 1, 0, 0, 0, 0, 2<br/>1, 0, 0]>, fillcolor="#fbdee8"] ;
135 -> 136 ;
137 [label=<X<SUB>2</SUB> &le; 2.5<br/>gini = 0.72<br/>samples = 5<br/>value = [0, 0, 0, 0, 0, 0, 0, 0, 0, 0, 0, 1, 0, 0<br/>0, 0, 0, 0, 1, 0, 0, 0, 0, 0, 0, 0, 0, 2<br/>1, 0, 0]>, fillcolor="#f8cedd"] ;
136 -> 137 ;
138 [label=<gini = 0.0<br/>samples = 1<br/>value = [0, 0, 0, 0, 0, 0, 0, 0, 0, 0, 0, 0, 0, 0<br/>0, 0, 0, 0, 0, 0, 0, 0, 0, 0, 0, 0, 0, 1<br/>0, 0, 0]>, fillcolor="#e53978"] ;
137 -> 138 ;
139 [label=<gini = 0.75<br/>samples = 4<br/>value = [0, 0, 0, 0, 0, 0, 0, 0, 0, 0, 0, 1, 0, 0<br/>0, 0, 0, 0, 1, 0, 0, 0, 0, 0, 0, 0, 0, 1<br/>1, 0, 0]>, fillcolor="#ffffff"] ;
137 -> 139 ;
140 [label=<X<SUB>2</SUB> &le; 4.5<br/>gini = 0.5<br/>samples = 2<br/>value = [0, 0, 0, 0, 0, 0, 0, 0, 0, 0, 0, 0, 0, 0<br/>0, 0, 0, 0, 0, 0, 1, 0, 1, 0, 0, 0, 0, 0<br/>0, 0, 0]>, fillcolor="#ffffff"] ;
136 -> 140 ;
141 [label=<gini = 0.0<br/>samples = 1<br/>value = [0, 0, 0, 0, 0, 0, 0, 0, 0, 0, 0, 0, 0, 0<br/>0, 0, 0, 0, 0, 0, 1, 0, 0, 0, 0, 0, 0, 0<br/>0, 0, 0]>, fillcolor="#6a39e5"] ;
140 -> 141 ;
142 [label=<gini = 0.0<br/>samples = 1<br/>value = [0, 0, 0, 0, 0, 0, 0, 0, 0, 0, 0, 0, 0, 0<br/>0, 0, 0, 0, 0, 0, 0, 0, 1, 0, 0, 0, 0, 0<br/>0, 0, 0]>, fillcolor="#ac39e5"] ;
140 -> 142 ;
143 [label=<X<SUB>2</SUB> &le; 7.5<br/>gini = 0.444<br/>samples = 3<br/>value = [2, 0, 0, 0, 0, 0, 0, 0, 0, 0, 0, 0, 0, 0<br/>0, 0, 0, 0, 0, 0, 0, 0, 0, 0, 0, 0, 0, 1<br/>0, 0, 0]>, fillcolor="#f2c09c"] ;
135 -> 143 ;
144 [label=<gini = 0.0<br/>samples = 1<br/>value = [1, 0, 0, 0, 0, 0, 0, 0, 0, 0, 0, 0, 0, 0<br/>0, 0, 0, 0, 0, 0, 0, 0, 0, 0, 0, 0, 0, 0<br/>0, 0, 0]>, fillcolor="#e58139"] ;
143 -> 144 ;
145 [label=<X<SUB>0</SUB> &le; 3.5<br/>gini = 0.5<br/>samples = 2<br/>value = [1, 0, 0, 0, 0, 0, 0, 0, 0, 0, 0, 0, 0, 0<br/>0, 0, 0, 0, 0, 0, 0, 0, 0, 0, 0, 0, 0, 1<br/>0, 0, 0]>, fillcolor="#ffffff"] ;
143 -> 145 ;
146 [label=<gini = 0.0<br/>samples = 1<br/>value = [1, 0, 0, 0, 0, 0, 0, 0, 0, 0, 0, 0, 0, 0<br/>0, 0, 0, 0, 0, 0, 0, 0, 0, 0, 0, 0, 0, 0<br/>0, 0, 0]>, fillcolor="#e58139"] ;
145 -> 146 ;
147 [label=<gini = 0.0<br/>samples = 1<br/>value = [0, 0, 0, 0, 0, 0, 0, 0, 0, 0, 0, 0, 0, 0<br/>0, 0, 0, 0, 0, 0, 0, 0, 0, 0, 0, 0, 0, 1<br/>0, 0, 0]>, fillcolor="#e53978"] ;
145 -> 147 ;
148 [label=<X<SUB>2</SUB> &le; 6.5<br/>gini = 0.79<br/>samples = 9<br/>value = [0, 0, 0, 0, 0, 1, 0, 0, 0, 0, 0, 0, 3, 0<br/>0, 2, 0, 0, 1, 0, 0, 0, 1, 0, 0, 0, 0, 1<br/>0, 0, 0]>, fillcolor="#e3fbf5"] ;
86 -> 148 ;
149 [label=<X<SUB>2</SUB> &le; 5.0<br/>gini = 0.735<br/>samples = 7<br/>value = [0, 0, 0, 0, 0, 1, 0, 0, 0, 0, 0, 0, 3, 0<br/>0, 0, 0, 0, 1, 0, 0, 0, 1, 0, 0, 0, 0, 1<br/>0, 0, 0]>, fillcolor="#bdf6e7"] ;
148 -> 149 ;
150 [label=<X<SUB>1</SUB> &le; 1.5<br/>gini = 0.56<br/>samples = 5<br/>value = [0, 0, 0, 0, 0, 1, 0, 0, 0, 0, 0, 0, 3, 0<br/>0, 0, 0, 0, 1, 0, 0, 0, 0, 0, 0, 0, 0, 0<br/>0, 0, 0]>, fillcolor="#9cf2db"] ;
149 -> 150 ;
151 [label=<X<SUB>1</SUB> &le; 0.5<br/>gini = 0.375<br/>samples = 4<br/>value = [0, 0, 0, 0, 0, 0, 0, 0, 0, 0, 0, 0, 3, 0<br/>0, 0, 0, 0, 1, 0, 0, 0, 0, 0, 0, 0, 0, 0<br/>0, 0, 0]>, fillcolor="#7beecf"] ;
150 -> 151 ;
152 [label=<gini = 0.444<br/>samples = 3<br/>value = [0, 0, 0, 0, 0, 0, 0, 0, 0, 0, 0, 0, 2, 0<br/>0, 0, 0, 0, 1, 0, 0, 0, 0, 0, 0, 0, 0, 0<br/>0, 0, 0]>, fillcolor="#9cf2db"] ;
151 -> 152 ;
153 [label=<gini = 0.0<br/>samples = 1<br/>value = [0, 0, 0, 0, 0, 0, 0, 0, 0, 0, 0, 0, 1, 0<br/>0, 0, 0, 0, 0, 0, 0, 0, 0, 0, 0, 0, 0, 0<br/>0, 0, 0]>, fillcolor="#39e5b7"] ;
151 -> 153 ;
154 [label=<gini = 0.0<br/>samples = 1<br/>value = [0, 0, 0, 0, 0, 1, 0, 0, 0, 0, 0, 0, 0, 0<br/>0, 0, 0, 0, 0, 0, 0, 0, 0, 0, 0, 0, 0, 0<br/>0, 0, 0]>, fillcolor="#a3e539"] ;
150 -> 154 ;
155 [label=<X<SUB>1</SUB> &le; 0.5<br/>gini = 0.5<br/>samples = 2<br/>value = [0, 0, 0, 0, 0, 0, 0, 0, 0, 0, 0, 0, 0, 0<br/>0, 0, 0, 0, 0, 0, 0, 0, 1, 0, 0, 0, 0, 1<br/>0, 0, 0]>, fillcolor="#ffffff"] ;
149 -> 155 ;
156 [label=<gini = 0.0<br/>samples = 1<br/>value = [0, 0, 0, 0, 0, 0, 0, 0, 0, 0, 0, 0, 0, 0<br/>0, 0, 0, 0, 0, 0, 0, 0, 1, 0, 0, 0, 0, 0<br/>0, 0, 0]>, fillcolor="#ac39e5"] ;
155 -> 156 ;
157 [label=<gini = 0.0<br/>samples = 1<br/>value = [0, 0, 0, 0, 0, 0, 0, 0, 0, 0, 0, 0, 0, 0<br/>0, 0, 0, 0, 0, 0, 0, 0, 0, 0, 0, 0, 0, 1<br/>0, 0, 0]>, fillcolor="#e53978"] ;
155 -> 157 ;
158 [label=<gini = 0.0<br/>samples = 2<br/>value = [0, 0, 0, 0, 0, 0, 0, 0, 0, 0, 0, 0, 0, 0<br/>0, 2, 0, 0, 0, 0, 0, 0, 0, 0, 0, 0, 0, 0<br/>0, 0, 0]>, fillcolor="#39aee5"] ;
148 -> 158 ;
159 [label=<X<SUB>0</SUB> &le; 3.0<br/>gini = 0.82<br/>samples = 10<br/>value = [2, 0, 0, 0, 1, 1, 0, 0, 0, 0, 0, 0, 0, 0<br/>0, 0, 0, 1, 0, 0, 0, 0, 0, 0, 0, 1, 0, 1<br/>0, 3, 0]>, fillcolor="#fce7e6"] ;
85 -> 159 ;
160 [label=<X<SUB>0</SUB> &le; 1.5<br/>gini = 0.778<br/>samples = 6<br/>value = [2, 0, 0, 0, 1, 1, 0, 0, 0, 0, 0, 0, 0, 0<br/>0, 0, 0, 0, 0, 0, 0, 0, 0, 0, 0, 1, 0, 1<br/>0, 0, 0]>, fillcolor="#fae6d7"] ;
159 -> 160 ;
161 [label=<gini = 0.5<br/>samples = 2<br/>value = [0, 0, 0, 0, 0, 1, 0, 0, 0, 0, 0, 0, 0, 0<br/>0, 0, 0, 0, 0, 0, 0, 0, 0, 0, 0, 1, 0, 0<br/>0, 0, 0]>, fillcolor="#ffffff"] ;
160 -> 161 ;
162 [label=<X<SUB>2</SUB> &le; 2.5<br/>gini = 0.625<br/>samples = 4<br/>value = [2, 0, 0, 0, 1, 0, 0, 0, 0, 0, 0, 0, 0, 0<br/>0, 0, 0, 0, 0, 0, 0, 0, 0, 0, 0, 0, 0, 1<br/>0, 0, 0]>, fillcolor="#f6d5bd"] ;
160 -> 162 ;
163 [label=<gini = 0.0<br/>samples = 1<br/>value = [0, 0, 0, 0, 0, 0, 0, 0, 0, 0, 0, 0, 0, 0<br/>0, 0, 0, 0, 0, 0, 0, 0, 0, 0, 0, 0, 0, 1<br/>0, 0, 0]>, fillcolor="#e53978"] ;
162 -> 163 ;
164 [label=<X<SUB>2</SUB> &le; 6.0<br/>gini = 0.444<br/>samples = 3<br/>value = [2, 0, 0, 0, 1, 0, 0, 0, 0, 0, 0, 0, 0, 0<br/>0, 0, 0, 0, 0, 0, 0, 0, 0, 0, 0, 0, 0, 0<br/>0, 0, 0]>, fillcolor="#f2c09c"] ;
162 -> 164 ;
165 [label=<gini = 0.0<br/>samples = 2<br/>value = [2, 0, 0, 0, 0, 0, 0, 0, 0, 0, 0, 0, 0, 0<br/>0, 0, 0, 0, 0, 0, 0, 0, 0, 0, 0, 0, 0, 0<br/>0, 0, 0]>, fillcolor="#e58139"] ;
164 -> 165 ;
166 [label=<gini = 0.0<br/>samples = 1<br/>value = [0, 0, 0, 0, 1, 0, 0, 0, 0, 0, 0, 0, 0, 0<br/>0, 0, 0, 0, 0, 0, 0, 0, 0, 0, 0, 0, 0, 0<br/>0, 0, 0]>, fillcolor="#c5e539"] ;
164 -> 166 ;
167 [label=<X<SUB>2</SUB> &le; 3.5<br/>gini = 0.375<br/>samples = 4<br/>value = [0, 0, 0, 0, 0, 0, 0, 0, 0, 0, 0, 0, 0, 0<br/>0, 0, 0, 1, 0, 0, 0, 0, 0, 0, 0, 0, 0, 0<br/>0, 3, 0]>, fillcolor="#ee7d7b"] ;
159 -> 167 ;
168 [label=<gini = 0.0<br/>samples = 1<br/>value = [0, 0, 0, 0, 0, 0, 0, 0, 0, 0, 0, 0, 0, 0<br/>0, 0, 0, 1, 0, 0, 0, 0, 0, 0, 0, 0, 0, 0<br/>0, 0, 0]>, fillcolor="#396de5"] ;
167 -> 168 ;
169 [label=<gini = 0.0<br/>samples = 3<br/>value = [0, 0, 0, 0, 0, 0, 0, 0, 0, 0, 0, 0, 0, 0<br/>0, 0, 0, 0, 0, 0, 0, 0, 0, 0, 0, 0, 0, 0<br/>0, 3, 0]>, fillcolor="#e53c39"] ;
167 -> 169 ;
170 [label=<X<SUB>1</SUB> &le; 1.5<br/>gini = 0.89<br/>samples = 58<br/>value = [5, 0, 3, 2, 0, 2, 0, 0, 0, 0, 0, 0, 7, 0<br/>0, 2, 10, 10, 0, 0, 0, 0, 0, 0, 0, 5, 0, 5<br/>4, 3, 0]>, fillcolor="#ffffff"] ;
84 -> 170 ;
171 [label=<X<SUB>2</SUB> &le; 3.5<br/>gini = 0.878<br/>samples = 35<br/>value = [3, 0, 2, 1, 0, 0, 0, 0, 0, 0, 0, 0, 3, 0<br/>0, 1, 4, 8, 0, 0, 0, 0, 0, 0, 0, 4, 0, 4<br/>3, 2, 0]>, fillcolor="#e5ecfc"] ;
170 -> 171 ;
172 [label=<X<SUB>0</SUB> &le; 8.5<br/>gini = 0.74<br/>samples = 10<br/>value = [0, 0, 2, 0, 0, 0, 0, 0, 0, 0, 0, 0, 1, 0<br/>0, 0, 2, 4, 0, 0, 0, 0, 0, 0, 0, 0, 0, 0<br/>1, 0, 0]>, fillcolor="#cedaf8"] ;
171 -> 172 ;
173 [label=<X<SUB>2</SUB> &le; 2.5<br/>gini = 0.625<br/>samples = 4<br/>value = [0, 0, 0, 0, 0, 0, 0, 0, 0, 0, 0, 0, 0, 0<br/>0, 0, 2, 1, 0, 0, 0, 0, 0, 0, 0, 0, 0, 0<br/>1, 0, 0]>, fillcolor="#bddaf6"] ;
172 -> 173 ;
174 [label=<gini = 0.0<br/>samples = 1<br/>value = [0, 0, 0, 0, 0, 0, 0, 0, 0, 0, 0, 0, 0, 0<br/>0, 0, 1, 0, 0, 0, 0, 0, 0, 0, 0, 0, 0, 0<br/>0, 0, 0]>, fillcolor="#398fe5"] ;
173 -> 174 ;
175 [label=<X<SUB>1</SUB> &le; 0.5<br/>gini = 0.667<br/>samples = 3<br/>value = [0, 0, 0, 0, 0, 0, 0, 0, 0, 0, 0, 0, 0, 0<br/>0, 0, 1, 1, 0, 0, 0, 0, 0, 0, 0, 0, 0, 0<br/>1, 0, 0]>, fillcolor="#ffffff"] ;
173 -> 175 ;
176 [label=<gini = 0.5<br/>samples = 2<br/>value = [0, 0, 0, 0, 0, 0, 0, 0, 0, 0, 0, 0, 0, 0<br/>0, 0, 1, 0, 0, 0, 0, 0, 0, 0, 0, 0, 0, 0<br/>1, 0, 0]>, fillcolor="#ffffff"] ;
175 -> 176 ;
177 [label=<gini = 0.0<br/>samples = 1<br/>value = [0, 0, 0, 0, 0, 0, 0, 0, 0, 0, 0, 0, 0, 0<br/>0, 0, 0, 1, 0, 0, 0, 0, 0, 0, 0, 0, 0, 0<br/>0, 0, 0]>, fillcolor="#396de5"] ;
175 -> 177 ;
178 [label=<X<SUB>0</SUB> &le; 9.5<br/>gini = 0.611<br/>samples = 6<br/>value = [0, 0, 2, 0, 0, 0, 0, 0, 0, 0, 0, 0, 1, 0<br/>0, 0, 0, 3, 0, 0, 0, 0, 0, 0, 0, 0, 0, 0<br/>0, 0, 0]>, fillcolor="#cedaf8"] ;
172 -> 178 ;
179 [label=<gini = 0.0<br/>samples = 2<br/>value = [0, 0, 0, 0, 0, 0, 0, 0, 0, 0, 0, 0, 0, 0<br/>0, 0, 0, 2, 0, 0, 0, 0, 0, 0, 0, 0, 0, 0<br/>0, 0, 0]>, fillcolor="#396de5"] ;
178 -> 179 ;
180 [label=<X<SUB>1</SUB> &le; 0.5<br/>gini = 0.625<br/>samples = 4<br/>value = [0, 0, 2, 0, 0, 0, 0, 0, 0, 0, 0, 0, 1, 0<br/>0, 0, 0, 1, 0, 0, 0, 0, 0, 0, 0, 0, 0, 0<br/>0, 0, 0]>, fillcolor="#f6ebbd"] ;
178 -> 180 ;
181 [label=<gini = 0.0<br/>samples = 1<br/>value = [0, 0, 1, 0, 0, 0, 0, 0, 0, 0, 0, 0, 0, 0<br/>0, 0, 0, 0, 0, 0, 0, 0, 0, 0, 0, 0, 0, 0<br/>0, 0, 0]>, fillcolor="#e5c339"] ;
180 -> 181 ;
182 [label=<gini = 0.667<br/>samples = 3<br/>value = [0, 0, 1, 0, 0, 0, 0, 0, 0, 0, 0, 0, 1, 0<br/>0, 0, 0, 1, 0, 0, 0, 0, 0, 0, 0, 0, 0, 0<br/>0, 0, 0]>, fillcolor="#ffffff"] ;
180 -> 182 ;
183 [label=<X<SUB>1</SUB> &le; 0.5<br/>gini = 0.88<br/>samples = 25<br/>value = [3, 0, 0, 1, 0, 0, 0, 0, 0, 0, 0, 0, 2, 0<br/>0, 1, 2, 4, 0, 0, 0, 0, 0, 0, 0, 4, 0, 4<br/>2, 2, 0]>, fillcolor="#ffffff"] ;
171 -> 183 ;
184 [label=<X<SUB>0</SUB> &le; 9.5<br/>gini = 0.817<br/>samples = 13<br/>value = [3, 0, 0, 0, 0, 0, 0, 0, 0, 0, 0, 0, 2, 0<br/>0, 0, 2, 0, 0, 0, 0, 0, 0, 0, 0, 2, 0, 3<br/>0, 1, 0]>, fillcolor="#ffffff"] ;
183 -> 184 ;
185 [label=<X<SUB>2</SUB> &le; 6.5<br/>gini = 0.694<br/>samples = 7<br/>value = [0, 0, 0, 0, 0, 0, 0, 0, 0, 0, 0, 0, 1, 0<br/>0, 0, 2, 0, 0, 0, 0, 0, 0, 0, 0, 1, 0, 3<br/>0, 0, 0]>, fillcolor="#fad7e4"] ;
184 -> 185 ;
186 [label=<X<SUB>2</SUB> &le; 4.5<br/>gini = 0.444<br/>samples = 3<br/>value = [0, 0, 0, 0, 0, 0, 0, 0, 0, 0, 0, 0, 0, 0<br/>0, 0, 0, 0, 0, 0, 0, 0, 0, 0, 0, 1, 0, 2<br/>0, 0, 0]>, fillcolor="#f29cbc"] ;
185 -> 186 ;
187 [label=<gini = 0.0<br/>samples = 1<br/>value = [0, 0, 0, 0, 0, 0, 0, 0, 0, 0, 0, 0, 0, 0<br/>0, 0, 0, 0, 0, 0, 0, 0, 0, 0, 0, 0, 0, 1<br/>0, 0, 0]>, fillcolor="#e53978"] ;
186 -> 187 ;
188 [label=<X<SUB>0</SUB> &le; 8.5<br/>gini = 0.5<br/>samples = 2<br/>value = [0, 0, 0, 0, 0, 0, 0, 0, 0, 0, 0, 0, 0, 0<br/>0, 0, 0, 0, 0, 0, 0, 0, 0, 0, 0, 1, 0, 1<br/>0, 0, 0]>, fillcolor="#ffffff"] ;
186 -> 188 ;
189 [label=<gini = 0.0<br/>samples = 1<br/>value = [0, 0, 0, 0, 0, 0, 0, 0, 0, 0, 0, 0, 0, 0<br/>0, 0, 0, 0, 0, 0, 0, 0, 0, 0, 0, 1, 0, 0<br/>0, 0, 0]>, fillcolor="#e539ba"] ;
188 -> 189 ;
190 [label=<gini = 0.0<br/>samples = 1<br/>value = [0, 0, 0, 0, 0, 0, 0, 0, 0, 0, 0, 0, 0, 0<br/>0, 0, 0, 0, 0, 0, 0, 0, 0, 0, 0, 0, 0, 1<br/>0, 0, 0]>, fillcolor="#e53978"] ;
188 -> 190 ;
191 [label=<X<SUB>2</SUB> &le; 7.5<br/>gini = 0.625<br/>samples = 4<br/>value = [0, 0, 0, 0, 0, 0, 0, 0, 0, 0, 0, 0, 1, 0<br/>0, 0, 2, 0, 0, 0, 0, 0, 0, 0, 0, 0, 0, 1<br/>0, 0, 0]>, fillcolor="#bddaf6"] ;
185 -> 191 ;
192 [label=<gini = 0.5<br/>samples = 2<br/>value = [0, 0, 0, 0, 0, 0, 0, 0, 0, 0, 0, 0, 1, 0<br/>0, 0, 1, 0, 0, 0, 0, 0, 0, 0, 0, 0, 0, 0<br/>0, 0, 0]>, fillcolor="#ffffff"] ;
191 -> 192 ;
193 [label=<gini = 0.5<br/>samples = 2<br/>value = [0, 0, 0, 0, 0, 0, 0, 0, 0, 0, 0, 0, 0, 0<br/>0, 0, 1, 0, 0, 0, 0, 0, 0, 0, 0, 0, 0, 1<br/>0, 0, 0]>, fillcolor="#ffffff"] ;
191 -> 193 ;
194 [label=<X<SUB>2</SUB> &le; 6.0<br/>gini = 0.667<br/>samples = 6<br/>value = [3, 0, 0, 0, 0, 0, 0, 0, 0, 0, 0, 0, 1, 0<br/>0, 0, 0, 0, 0, 0, 0, 0, 0, 0, 0, 1, 0, 0<br/>0, 1, 0]>, fillcolor="#f5cdb0"] ;
184 -> 194 ;
195 [label=<X<SUB>2</SUB> &le; 4.5<br/>gini = 0.444<br/>samples = 3<br/>value = [2, 0, 0, 0, 0, 0, 0, 0, 0, 0, 0, 0, 0, 0<br/>0, 0, 0, 0, 0, 0, 0, 0, 0, 0, 0, 1, 0, 0<br/>0, 0, 0]>, fillcolor="#f2c09c"] ;
194 -> 195 ;
196 [label=<gini = 0.5<br/>samples = 2<br/>value = [1, 0, 0, 0, 0, 0, 0, 0, 0, 0, 0, 0, 0, 0<br/>0, 0, 0, 0, 0, 0, 0, 0, 0, 0, 0, 1, 0, 0<br/>0, 0, 0]>, fillcolor="#ffffff"] ;
195 -> 196 ;
197 [label=<gini = 0.0<br/>samples = 1<br/>value = [1, 0, 0, 0, 0, 0, 0, 0, 0, 0, 0, 0, 0, 0<br/>0, 0, 0, 0, 0, 0, 0, 0, 0, 0, 0, 0, 0, 0<br/>0, 0, 0]>, fillcolor="#e58139"] ;
195 -> 197 ;
198 [label=<X<SUB>2</SUB> &le; 7.5<br/>gini = 0.667<br/>samples = 3<br/>value = [1, 0, 0, 0, 0, 0, 0, 0, 0, 0, 0, 0, 1, 0<br/>0, 0, 0, 0, 0, 0, 0, 0, 0, 0, 0, 0, 0, 0<br/>0, 1, 0]>, fillcolor="#ffffff"] ;
194 -> 198 ;
199 [label=<gini = 0.5<br/>samples = 2<br/>value = [0, 0, 0, 0, 0, 0, 0, 0, 0, 0, 0, 0, 1, 0<br/>0, 0, 0, 0, 0, 0, 0, 0, 0, 0, 0, 0, 0, 0<br/>0, 1, 0]>, fillcolor="#ffffff"] ;
198 -> 199 ;
200 [label=<gini = 0.0<br/>samples = 1<br/>value = [1, 0, 0, 0, 0, 0, 0, 0, 0, 0, 0, 0, 0, 0<br/>0, 0, 0, 0, 0, 0, 0, 0, 0, 0, 0, 0, 0, 0<br/>0, 0, 0]>, fillcolor="#e58139"] ;
198 -> 200 ;
201 [label=<X<SUB>0</SUB> &le; 8.5<br/>gini = 0.806<br/>samples = 12<br/>value = [0, 0, 0, 1, 0, 0, 0, 0, 0, 0, 0, 0, 0, 0<br/>0, 1, 0, 4, 0, 0, 0, 0, 0, 0, 0, 2, 0, 1<br/>2, 1, 0]>, fillcolor="#d7e2fa"] ;
183 -> 201 ;
202 [label=<X<SUB>2</SUB> &le; 4.5<br/>gini = 0.667<br/>samples = 3<br/>value = [0, 0, 0, 1, 0, 0, 0, 0, 0, 0, 0, 0, 0, 0<br/>0, 1, 0, 0, 0, 0, 0, 0, 0, 0, 0, 0, 0, 0<br/>1, 0, 0]>, fillcolor="#ffffff"] ;
201 -> 202 ;
203 [label=<gini = 0.0<br/>samples = 1<br/>value = [0, 0, 0, 0, 0, 0, 0, 0, 0, 0, 0, 0, 0, 0<br/>0, 0, 0, 0, 0, 0, 0, 0, 0, 0, 0, 0, 0, 0<br/>1, 0, 0]>, fillcolor="#e53956"] ;
202 -> 203 ;
204 [label=<X<SUB>2</SUB> &le; 6.0<br/>gini = 0.5<br/>samples = 2<br/>value = [0, 0, 0, 1, 0, 0, 0, 0, 0, 0, 0, 0, 0, 0<br/>0, 1, 0, 0, 0, 0, 0, 0, 0, 0, 0, 0, 0, 0<br/>0, 0, 0]>, fillcolor="#ffffff"] ;
202 -> 204 ;
205 [label=<gini = 0.0<br/>samples = 1<br/>value = [0, 0, 0, 0, 0, 0, 0, 0, 0, 0, 0, 0, 0, 0<br/>0, 1, 0, 0, 0, 0, 0, 0, 0, 0, 0, 0, 0, 0<br/>0, 0, 0]>, fillcolor="#39aee5"] ;
204 -> 205 ;
206 [label=<gini = 0.0<br/>samples = 1<br/>value = [0, 0, 0, 1, 0, 0, 0, 0, 0, 0, 0, 0, 0, 0<br/>0, 0, 0, 0, 0, 0, 0, 0, 0, 0, 0, 0, 0, 0<br/>0, 0, 0]>, fillcolor="#e5e239"] ;
204 -> 206 ;
207 [label=<X<SUB>2</SUB> &le; 7.5<br/>gini = 0.716<br/>samples = 9<br/>value = [0, 0, 0, 0, 0, 0, 0, 0, 0, 0, 0, 0, 0, 0<br/>0, 0, 0, 4, 0, 0, 0, 0, 0, 0, 0, 2, 0, 1<br/>1, 1, 0]>, fillcolor="#c6d5f8"] ;
201 -> 207 ;
208 [label=<X<SUB>2</SUB> &le; 6.5<br/>gini = 0.612<br/>samples = 7<br/>value = [0, 0, 0, 0, 0, 0, 0, 0, 0, 0, 0, 0, 0, 0<br/>0, 0, 0, 4, 0, 0, 0, 0, 0, 0, 0, 1, 0, 0<br/>1, 1, 0]>, fillcolor="#9cb6f2"] ;
207 -> 208 ;
209 [label=<X<SUB>0</SUB> &le; 9.5<br/>gini = 0.667<br/>samples = 3<br/>value = [0, 0, 0, 0, 0, 0, 0, 0, 0, 0, 0, 0, 0, 0<br/>0, 0, 0, 1, 0, 0, 0, 0, 0, 0, 0, 1, 0, 0<br/>1, 0, 0]>, fillcolor="#ffffff"] ;
208 -> 209 ;
210 [label=<gini = 0.0<br/>samples = 1<br/>value = [0, 0, 0, 0, 0, 0, 0, 0, 0, 0, 0, 0, 0, 0<br/>0, 0, 0, 1, 0, 0, 0, 0, 0, 0, 0, 0, 0, 0<br/>0, 0, 0]>, fillcolor="#396de5"] ;
209 -> 210 ;
211 [label=<gini = 0.5<br/>samples = 2<br/>value = [0, 0, 0, 0, 0, 0, 0, 0, 0, 0, 0, 0, 0, 0<br/>0, 0, 0, 0, 0, 0, 0, 0, 0, 0, 0, 1, 0, 0<br/>1, 0, 0]>, fillcolor="#ffffff"] ;
209 -> 211 ;
212 [label=<X<SUB>0</SUB> &le; 9.5<br/>gini = 0.375<br/>samples = 4<br/>value = [0, 0, 0, 0, 0, 0, 0, 0, 0, 0, 0, 0, 0, 0<br/>0, 0, 0, 3, 0, 0, 0, 0, 0, 0, 0, 0, 0, 0<br/>0, 1, 0]>, fillcolor="#7b9eee"] ;
208 -> 212 ;
213 [label=<gini = 0.0<br/>samples = 1<br/>value = [0, 0, 0, 0, 0, 0, 0, 0, 0, 0, 0, 0, 0, 0<br/>0, 0, 0, 0, 0, 0, 0, 0, 0, 0, 0, 0, 0, 0<br/>0, 1, 0]>, fillcolor="#e53c39"] ;
212 -> 213 ;
214 [label=<gini = 0.0<br/>samples = 3<br/>value = [0, 0, 0, 0, 0, 0, 0, 0, 0, 0, 0, 0, 0, 0<br/>0, 0, 0, 3, 0, 0, 0, 0, 0, 0, 0, 0, 0, 0<br/>0, 0, 0]>, fillcolor="#396de5"] ;
212 -> 214 ;
215 [label=<X<SUB>0</SUB> &le; 9.5<br/>gini = 0.5<br/>samples = 2<br/>value = [0, 0, 0, 0, 0, 0, 0, 0, 0, 0, 0, 0, 0, 0<br/>0, 0, 0, 0, 0, 0, 0, 0, 0, 0, 0, 1, 0, 1<br/>0, 0, 0]>, fillcolor="#ffffff"] ;
207 -> 215 ;
216 [label=<gini = 0.0<br/>samples = 1<br/>value = [0, 0, 0, 0, 0, 0, 0, 0, 0, 0, 0, 0, 0, 0<br/>0, 0, 0, 0, 0, 0, 0, 0, 0, 0, 0, 1, 0, 0<br/>0, 0, 0]>, fillcolor="#e539ba"] ;
215 -> 216 ;
217 [label=<gini = 0.0<br/>samples = 1<br/>value = [0, 0, 0, 0, 0, 0, 0, 0, 0, 0, 0, 0, 0, 0<br/>0, 0, 0, 0, 0, 0, 0, 0, 0, 0, 0, 0, 0, 1<br/>0, 0, 0]>, fillcolor="#e53978"] ;
215 -> 217 ;
218 [label=<X<SUB>2</SUB> &le; 4.5<br/>gini = 0.866<br/>samples = 23<br/>value = [2, 0, 1, 1, 0, 2, 0, 0, 0, 0, 0, 0, 4, 0<br/>0, 1, 6, 2, 0, 0, 0, 0, 0, 0, 0, 1, 0, 1<br/>1, 1, 0]>, fillcolor="#eaf3fc"] ;
170 -> 218 ;
219 [label=<X<SUB>2</SUB> &le; 3.5<br/>gini = 0.84<br/>samples = 9<br/>value = [2, 0, 1, 0, 0, 1, 0, 0, 0, 0, 0, 0, 2, 0<br/>0, 0, 1, 0, 0, 0, 0, 0, 0, 0, 0, 1, 0, 1<br/>0, 0, 0]>, fillcolor="#ffffff"] ;
218 -> 219 ;
220 [label=<X<SUB>1</SUB> &le; 2.5<br/>gini = 0.812<br/>samples = 8<br/>value = [2, 0, 0, 0, 0, 1, 0, 0, 0, 0, 0, 0, 2, 0<br/>0, 0, 1, 0, 0, 0, 0, 0, 0, 0, 0, 1, 0, 1<br/>0, 0, 0]>, fillcolor="#ffffff"] ;
219 -> 220 ;
221 [label=<X<SUB>0</SUB> &le; 8.5<br/>gini = 0.625<br/>samples = 4<br/>value = [1, 0, 0, 0, 0, 0, 0, 0, 0, 0, 0, 0, 2, 0<br/>0, 0, 0, 0, 0, 0, 0, 0, 0, 0, 0, 1, 0, 0<br/>0, 0, 0]>, fillcolor="#bdf6e7"] ;
220 -> 221 ;
222 [label=<gini = 0.667<br/>samples = 3<br/>value = [1, 0, 0, 0, 0, 0, 0, 0, 0, 0, 0, 0, 1, 0<br/>0, 0, 0, 0, 0, 0, 0, 0, 0, 0, 0, 1, 0, 0<br/>0, 0, 0]>, fillcolor="#ffffff"] ;
221 -> 222 ;
223 [label=<gini = 0.0<br/>samples = 1<br/>value = [0, 0, 0, 0, 0, 0, 0, 0, 0, 0, 0, 0, 1, 0<br/>0, 0, 0, 0, 0, 0, 0, 0, 0, 0, 0, 0, 0, 0<br/>0, 0, 0]>, fillcolor="#39e5b7"] ;
221 -> 223 ;
224 [label=<X<SUB>2</SUB> &le; 2.5<br/>gini = 0.75<br/>samples = 4<br/>value = [1, 0, 0, 0, 0, 1, 0, 0, 0, 0, 0, 0, 0, 0<br/>0, 0, 1, 0, 0, 0, 0, 0, 0, 0, 0, 0, 0, 1<br/>0, 0, 0]>, fillcolor="#ffffff"] ;
220 -> 224 ;
225 [label=<gini = 0.5<br/>samples = 2<br/>value = [1, 0, 0, 0, 0, 0, 0, 0, 0, 0, 0, 0, 0, 0<br/>0, 0, 1, 0, 0, 0, 0, 0, 0, 0, 0, 0, 0, 0<br/>0, 0, 0]>, fillcolor="#ffffff"] ;
224 -> 225 ;
226 [label=<gini = 0.5<br/>samples = 2<br/>value = [0, 0, 0, 0, 0, 1, 0, 0, 0, 0, 0, 0, 0, 0<br/>0, 0, 0, 0, 0, 0, 0, 0, 0, 0, 0, 0, 0, 1<br/>0, 0, 0]>, fillcolor="#ffffff"] ;
224 -> 226 ;
227 [label=<gini = 0.0<br/>samples = 1<br/>value = [0, 0, 1, 0, 0, 0, 0, 0, 0, 0, 0, 0, 0, 0<br/>0, 0, 0, 0, 0, 0, 0, 0, 0, 0, 0, 0, 0, 0<br/>0, 0, 0]>, fillcolor="#e5c339"] ;
219 -> 227 ;
228 [label=<X<SUB>0</SUB> &le; 9.5<br/>gini = 0.806<br/>samples = 14<br/>value = [0, 0, 0, 1, 0, 1, 0, 0, 0, 0, 0, 0, 2, 0<br/>0, 1, 5, 2, 0, 0, 0, 0, 0, 0, 0, 0, 0, 0<br/>1, 1, 0]>, fillcolor="#cee3f8"] ;
218 -> 228 ;
229 [label=<X<SUB>0</SUB> &le; 8.5<br/>gini = 0.76<br/>samples = 10<br/>value = [0, 0, 0, 0, 0, 1, 0, 0, 0, 0, 0, 0, 2, 0<br/>0, 1, 4, 1, 0, 0, 0, 0, 0, 0, 0, 0, 0, 0<br/>0, 1, 0]>, fillcolor="#cee3f8"] ;
228 -> 229 ;
230 [label=<X<SUB>1</SUB> &le; 2.5<br/>gini = 0.8<br/>samples = 5<br/>value = [0, 0, 0, 0, 0, 1, 0, 0, 0, 0, 0, 0, 1, 0<br/>0, 1, 1, 1, 0, 0, 0, 0, 0, 0, 0, 0, 0, 0<br/>0, 0, 0]>, fillcolor="#ffffff"] ;
229 -> 230 ;
231 [label=<gini = 0.667<br/>samples = 3<br/>value = [0, 0, 0, 0, 0, 0, 0, 0, 0, 0, 0, 0, 1, 0<br/>0, 1, 1, 0, 0, 0, 0, 0, 0, 0, 0, 0, 0, 0<br/>0, 0, 0]>, fillcolor="#ffffff"] ;
230 -> 231 ;
232 [label=<X<SUB>2</SUB> &le; 6.0<br/>gini = 0.5<br/>samples = 2<br/>value = [0, 0, 0, 0, 0, 1, 0, 0, 0, 0, 0, 0, 0, 0<br/>0, 0, 0, 1, 0, 0, 0, 0, 0, 0, 0, 0, 0, 0<br/>0, 0, 0]>, fillcolor="#ffffff"] ;
230 -> 232 ;
233 [label=<gini = 0.0<br/>samples = 1<br/>value = [0, 0, 0, 0, 0, 1, 0, 0, 0, 0, 0, 0, 0, 0<br/>0, 0, 0, 0, 0, 0, 0, 0, 0, 0, 0, 0, 0, 0<br/>0, 0, 0]>, fillcolor="#a3e539"] ;
232 -> 233 ;
234 [label=<gini = 0.0<br/>samples = 1<br/>value = [0, 0, 0, 0, 0, 0, 0, 0, 0, 0, 0, 0, 0, 0<br/>0, 0, 0, 1, 0, 0, 0, 0, 0, 0, 0, 0, 0, 0<br/>0, 0, 0]>, fillcolor="#396de5"] ;
232 -> 234 ;
235 [label=<X<SUB>1</SUB> &le; 2.5<br/>gini = 0.56<br/>samples = 5<br/>value = [0, 0, 0, 0, 0, 0, 0, 0, 0, 0, 0, 0, 1, 0<br/>0, 0, 3, 0, 0, 0, 0, 0, 0, 0, 0, 0, 0, 0<br/>0, 1, 0]>, fillcolor="#9cc7f2"] ;
229 -> 235 ;
236 [label=<gini = 0.0<br/>samples = 1<br/>value = [0, 0, 0, 0, 0, 0, 0, 0, 0, 0, 0, 0, 0, 0<br/>0, 0, 0, 0, 0, 0, 0, 0, 0, 0, 0, 0, 0, 0<br/>0, 1, 0]>, fillcolor="#e53c39"] ;
235 -> 236 ;
237 [label=<X<SUB>2</SUB> &le; 6.5<br/>gini = 0.375<br/>samples = 4<br/>value = [0, 0, 0, 0, 0, 0, 0, 0, 0, 0, 0, 0, 1, 0<br/>0, 0, 3, 0, 0, 0, 0, 0, 0, 0, 0, 0, 0, 0<br/>0, 0, 0]>, fillcolor="#7bb4ee"] ;
235 -> 237 ;
238 [label=<X<SUB>2</SUB> &le; 5.5<br/>gini = 0.5<br/>samples = 2<br/>value = [0, 0, 0, 0, 0, 0, 0, 0, 0, 0, 0, 0, 1, 0<br/>0, 0, 1, 0, 0, 0, 0, 0, 0, 0, 0, 0, 0, 0<br/>0, 0, 0]>, fillcolor="#ffffff"] ;
237 -> 238 ;
239 [label=<gini = 0.0<br/>samples = 1<br/>value = [0, 0, 0, 0, 0, 0, 0, 0, 0, 0, 0, 0, 0, 0<br/>0, 0, 1, 0, 0, 0, 0, 0, 0, 0, 0, 0, 0, 0<br/>0, 0, 0]>, fillcolor="#398fe5"] ;
238 -> 239 ;
240 [label=<gini = 0.0<br/>samples = 1<br/>value = [0, 0, 0, 0, 0, 0, 0, 0, 0, 0, 0, 0, 1, 0<br/>0, 0, 0, 0, 0, 0, 0, 0, 0, 0, 0, 0, 0, 0<br/>0, 0, 0]>, fillcolor="#39e5b7"] ;
238 -> 240 ;
241 [label=<gini = 0.0<br/>samples = 2<br/>value = [0, 0, 0, 0, 0, 0, 0, 0, 0, 0, 0, 0, 0, 0<br/>0, 0, 2, 0, 0, 0, 0, 0, 0, 0, 0, 0, 0, 0<br/>0, 0, 0]>, fillcolor="#398fe5"] ;
237 -> 241 ;
242 [label=<X<SUB>2</SUB> &le; 6.5<br/>gini = 0.75<br/>samples = 4<br/>value = [0, 0, 0, 1, 0, 0, 0, 0, 0, 0, 0, 0, 0, 0<br/>0, 0, 1, 1, 0, 0, 0, 0, 0, 0, 0, 0, 0, 0<br/>1, 0, 0]>, fillcolor="#ffffff"] ;
228 -> 242 ;
243 [label=<gini = 0.0<br/>samples = 1<br/>value = [0, 0, 0, 0, 0, 0, 0, 0, 0, 0, 0, 0, 0, 0<br/>0, 0, 1, 0, 0, 0, 0, 0, 0, 0, 0, 0, 0, 0<br/>0, 0, 0]>, fillcolor="#398fe5"] ;
242 -> 243 ;
244 [label=<X<SUB>2</SUB> &le; 7.5<br/>gini = 0.667<br/>samples = 3<br/>value = [0, 0, 0, 1, 0, 0, 0, 0, 0, 0, 0, 0, 0, 0<br/>0, 0, 0, 1, 0, 0, 0, 0, 0, 0, 0, 0, 0, 0<br/>1, 0, 0]>, fillcolor="#ffffff"] ;
242 -> 244 ;
245 [label=<gini = 0.0<br/>samples = 1<br/>value = [0, 0, 0, 0, 0, 0, 0, 0, 0, 0, 0, 0, 0, 0<br/>0, 0, 0, 1, 0, 0, 0, 0, 0, 0, 0, 0, 0, 0<br/>0, 0, 0]>, fillcolor="#396de5"] ;
244 -> 245 ;
246 [label=<gini = 0.5<br/>samples = 2<br/>value = [0, 0, 0, 1, 0, 0, 0, 0, 0, 0, 0, 0, 0, 0<br/>0, 0, 0, 0, 0, 0, 0, 0, 0, 0, 0, 0, 0, 0<br/>1, 0, 0]>, fillcolor="#ffffff"] ;
244 -> 246 ;
247 [label=<X<SUB>0</SUB> &le; 6.5<br/>gini = 0.896<br/>samples = 137<br/>value = [12, 0, 6, 1, 0, 8, 1, 0, 1, 2, 4, 1, 20, 1<br/>2, 2, 8, 31, 1, 0, 4, 0, 2, 0, 0, 11, 1, 8<br/>5, 5, 0]>, fillcolor="#ecf1fd"] ;
3 -> 247 ;
248 [label=<X<SUB>0</SUB> &le; 0.5<br/>gini = 0.898<br/>samples = 54<br/>value = [3, 0, 1, 1, 0, 3, 0, 0, 0, 0, 2, 1, 11, 1<br/>1, 1, 6, 9, 1, 0, 2, 0, 1, 0, 0, 2, 1, 4<br/>2, 1, 0]>, fillcolor="#f6fefc"] ;
247 -> 248 ;
249 [label=<X<SUB>2</SUB> &le; 1.0<br/>gini = 0.845<br/>samples = 20<br/>value = [1, 0, 0, 1, 0, 0, 0, 0, 0, 0, 1, 0, 3, 0<br/>0, 0, 1, 6, 0, 0, 0, 0, 1, 0, 0, 1, 0, 3<br/>1, 1, 0]>, fillcolor="#dce5fa"] ;
248 -> 249 ;
250 [label=<X<SUB>1</SUB> &le; 4.5<br/>gini = 0.667<br/>samples = 3<br/>value = [1, 0, 0, 0, 0, 0, 0, 0, 0, 0, 0, 0, 0, 0<br/>0, 0, 0, 0, 0, 0, 0, 0, 0, 0, 0, 0, 0, 1<br/>0, 1, 0]>, fillcolor="#ffffff"] ;
249 -> 250 ;
251 [label=<gini = 0.0<br/>samples = 1<br/>value = [0, 0, 0, 0, 0, 0, 0, 0, 0, 0, 0, 0, 0, 0<br/>0, 0, 0, 0, 0, 0, 0, 0, 0, 0, 0, 0, 0, 0<br/>0, 1, 0]>, fillcolor="#e53c39"] ;
250 -> 251 ;
252 [label=<gini = 0.5<br/>samples = 2<br/>value = [1, 0, 0, 0, 0, 0, 0, 0, 0, 0, 0, 0, 0, 0<br/>0, 0, 0, 0, 0, 0, 0, 0, 0, 0, 0, 0, 0, 1<br/>0, 0, 0]>, fillcolor="#ffffff"] ;
250 -> 252 ;
253 [label=<X<SUB>2</SUB> &le; 4.5<br/>gini = 0.81<br/>samples = 17<br/>value = [0, 0, 0, 1, 0, 0, 0, 0, 0, 0, 1, 0, 3, 0<br/>0, 0, 1, 6, 0, 0, 0, 0, 1, 0, 0, 1, 0, 2<br/>1, 0, 0]>, fillcolor="#d5e0f9"] ;
249 -> 253 ;
254 [label=<X<SUB>2</SUB> &le; 2.5<br/>gini = 0.612<br/>samples = 7<br/>value = [0, 0, 0, 1, 0, 0, 0, 0, 0, 0, 0, 0, 0, 0<br/>0, 0, 0, 4, 0, 0, 0, 0, 0, 0, 0, 1, 0, 1<br/>0, 0, 0]>, fillcolor="#9cb6f2"] ;
253 -> 254 ;
255 [label=<X<SUB>1</SUB> &le; 5.0<br/>gini = 0.667<br/>samples = 3<br/>value = [0, 0, 0, 0, 0, 0, 0, 0, 0, 0, 0, 0, 0, 0<br/>0, 0, 0, 1, 0, 0, 0, 0, 0, 0, 0, 1, 0, 1<br/>0, 0, 0]>, fillcolor="#ffffff"] ;
254 -> 255 ;
256 [label=<gini = 0.0<br/>samples = 1<br/>value = [0, 0, 0, 0, 0, 0, 0, 0, 0, 0, 0, 0, 0, 0<br/>0, 0, 0, 0, 0, 0, 0, 0, 0, 0, 0, 0, 0, 1<br/>0, 0, 0]>, fillcolor="#e53978"] ;
255 -> 256 ;
257 [label=<gini = 0.5<br/>samples = 2<br/>value = [0, 0, 0, 0, 0, 0, 0, 0, 0, 0, 0, 0, 0, 0<br/>0, 0, 0, 1, 0, 0, 0, 0, 0, 0, 0, 1, 0, 0<br/>0, 0, 0]>, fillcolor="#ffffff"] ;
255 -> 257 ;
258 [label=<X<SUB>1</SUB> &le; 4.5<br/>gini = 0.375<br/>samples = 4<br/>value = [0, 0, 0, 1, 0, 0, 0, 0, 0, 0, 0, 0, 0, 0<br/>0, 0, 0, 3, 0, 0, 0, 0, 0, 0, 0, 0, 0, 0<br/>0, 0, 0]>, fillcolor="#7b9eee"] ;
254 -> 258 ;
259 [label=<gini = 0.0<br/>samples = 1<br/>value = [0, 0, 0, 0, 0, 0, 0, 0, 0, 0, 0, 0, 0, 0<br/>0, 0, 0, 1, 0, 0, 0, 0, 0, 0, 0, 0, 0, 0<br/>0, 0, 0]>, fillcolor="#396de5"] ;
258 -> 259 ;
260 [label=<X<SUB>2</SUB> &le; 3.5<br/>gini = 0.444<br/>samples = 3<br/>value = [0, 0, 0, 1, 0, 0, 0, 0, 0, 0, 0, 0, 0, 0<br/>0, 0, 0, 2, 0, 0, 0, 0, 0, 0, 0, 0, 0, 0<br/>0, 0, 0]>, fillcolor="#9cb6f2"] ;
258 -> 260 ;
261 [label=<gini = 0.5<br/>samples = 2<br/>value = [0, 0, 0, 1, 0, 0, 0, 0, 0, 0, 0, 0, 0, 0<br/>0, 0, 0, 1, 0, 0, 0, 0, 0, 0, 0, 0, 0, 0<br/>0, 0, 0]>, fillcolor="#ffffff"] ;
260 -> 261 ;
262 [label=<gini = 0.0<br/>samples = 1<br/>value = [0, 0, 0, 0, 0, 0, 0, 0, 0, 0, 0, 0, 0, 0<br/>0, 0, 0, 1, 0, 0, 0, 0, 0, 0, 0, 0, 0, 0<br/>0, 0, 0]>, fillcolor="#396de5"] ;
260 -> 262 ;
263 [label=<X<SUB>2</SUB> &le; 5.5<br/>gini = 0.82<br/>samples = 10<br/>value = [0, 0, 0, 0, 0, 0, 0, 0, 0, 0, 1, 0, 3, 0<br/>0, 0, 1, 2, 0, 0, 0, 0, 1, 0, 0, 0, 0, 1<br/>1, 0, 0]>, fillcolor="#e6fcf6"] ;
253 -> 263 ;
264 [label=<gini = 0.625<br/>samples = 4<br/>value = [0, 0, 0, 0, 0, 0, 0, 0, 0, 0, 0, 0, 2, 0<br/>0, 0, 0, 0, 0, 0, 0, 0, 0, 0, 0, 0, 0, 1<br/>1, 0, 0]>, fillcolor="#bdf6e7"] ;
263 -> 264 ;
265 [label=<X<SUB>1</SUB> &le; 5.5<br/>gini = 0.778<br/>samples = 6<br/>value = [0, 0, 0, 0, 0, 0, 0, 0, 0, 0, 1, 0, 1, 0<br/>0, 0, 1, 2, 0, 0, 0, 0, 1, 0, 0, 0, 0, 0<br/>0, 0, 0]>, fillcolor="#d7e2fa"] ;
263 -> 265 ;
266 [label=<X<SUB>2</SUB> &le; 6.5<br/>gini = 0.444<br/>samples = 3<br/>value = [0, 0, 0, 0, 0, 0, 0, 0, 0, 0, 0, 0, 0, 0<br/>0, 0, 0, 2, 0, 0, 0, 0, 1, 0, 0, 0, 0, 0<br/>0, 0, 0]>, fillcolor="#9cb6f2"] ;
265 -> 266 ;
267 [label=<gini = 0.0<br/>samples = 1<br/>value = [0, 0, 0, 0, 0, 0, 0, 0, 0, 0, 0, 0, 0, 0<br/>0, 0, 0, 0, 0, 0, 0, 0, 1, 0, 0, 0, 0, 0<br/>0, 0, 0]>, fillcolor="#ac39e5"] ;
266 -> 267 ;
268 [label=<gini = 0.0<br/>samples = 2<br/>value = [0, 0, 0, 0, 0, 0, 0, 0, 0, 0, 0, 0, 0, 0<br/>0, 0, 0, 2, 0, 0, 0, 0, 0, 0, 0, 0, 0, 0<br/>0, 0, 0]>, fillcolor="#396de5"] ;
266 -> 268 ;
269 [label=<X<SUB>2</SUB> &le; 6.5<br/>gini = 0.667<br/>samples = 3<br/>value = [0, 0, 0, 0, 0, 0, 0, 0, 0, 0, 1, 0, 1, 0<br/>0, 0, 1, 0, 0, 0, 0, 0, 0, 0, 0, 0, 0, 0<br/>0, 0, 0]>, fillcolor="#ffffff"] ;
265 -> 269 ;
270 [label=<gini = 0.0<br/>samples = 1<br/>value = [0, 0, 0, 0, 0, 0, 0, 0, 0, 0, 0, 0, 0, 0<br/>0, 0, 1, 0, 0, 0, 0, 0, 0, 0, 0, 0, 0, 0<br/>0, 0, 0]>, fillcolor="#398fe5"] ;
269 -> 270 ;
271 [label=<gini = 0.5<br/>samples = 2<br/>value = [0, 0, 0, 0, 0, 0, 0, 0, 0, 0, 1, 0, 1, 0<br/>0, 0, 0, 0, 0, 0, 0, 0, 0, 0, 0, 0, 0, 0<br/>0, 0, 0]>, fillcolor="#ffffff"] ;
269 -> 271 ;
272 [label=<X<SUB>1</SUB> &le; 5.5<br/>gini = 0.891<br/>samples = 34<br/>value = [2, 0, 1, 0, 0, 3, 0, 0, 0, 0, 1, 1, 8, 1<br/>1, 1, 5, 3, 1, 0, 2, 0, 0, 0, 0, 1, 1, 1<br/>1, 0, 0]>, fillcolor="#ebfcf8"] ;
248 -> 272 ;
273 [label=<X<SUB>0</SUB> &le; 2.5<br/>gini = 0.902<br/>samples = 25<br/>value = [2, 0, 1, 0, 0, 1, 0, 0, 0, 0, 1, 1, 4, 1<br/>1, 1, 5, 2, 1, 0, 1, 0, 0, 0, 0, 1, 1, 1<br/>0, 0, 0]>, fillcolor="#f6fafe"] ;
272 -> 273 ;
274 [label=<X<SUB>0</SUB> &le; 1.5<br/>gini = 0.889<br/>samples = 12<br/>value = [2, 0, 0, 0, 0, 1, 0, 0, 0, 0, 1, 1, 0, 1<br/>0, 0, 2, 0, 0, 0, 1, 0, 0, 0, 0, 1, 1, 1<br/>0, 0, 0]>, fillcolor="#ffffff"] ;
273 -> 274 ;
275 [label=<X<SUB>2</SUB> &le; 3.5<br/>gini = 0.722<br/>samples = 6<br/>value = [2, 0, 0, 0, 0, 0, 0, 0, 0, 0, 1, 1, 0, 0<br/>0, 0, 2, 0, 0, 0, 0, 0, 0, 0, 0, 0, 0, 0<br/>0, 0, 0]>, fillcolor="#ffffff"] ;
274 -> 275 ;
276 [label=<gini = 0.0<br/>samples = 1<br/>value = [0, 0, 0, 0, 0, 0, 0, 0, 0, 0, 1, 0, 0, 0<br/>0, 0, 0, 0, 0, 0, 0, 0, 0, 0, 0, 0, 0, 0<br/>0, 0, 0]>, fillcolor="#39e575"] ;
275 -> 276 ;
277 [label=<X<SUB>2</SUB> &le; 6.5<br/>gini = 0.64<br/>samples = 5<br/>value = [2, 0, 0, 0, 0, 0, 0, 0, 0, 0, 0, 1, 0, 0<br/>0, 0, 2, 0, 0, 0, 0, 0, 0, 0, 0, 0, 0, 0<br/>0, 0, 0]>, fillcolor="#ffffff"] ;
275 -> 277 ;
278 [label=<gini = 0.5<br/>samples = 2<br/>value = [0, 0, 0, 0, 0, 0, 0, 0, 0, 0, 0, 1, 0, 0<br/>0, 0, 1, 0, 0, 0, 0, 0, 0, 0, 0, 0, 0, 0<br/>0, 0, 0]>, fillcolor="#ffffff"] ;
277 -> 278 ;
279 [label=<X<SUB>1</SUB> &le; 4.5<br/>gini = 0.444<br/>samples = 3<br/>value = [2, 0, 0, 0, 0, 0, 0, 0, 0, 0, 0, 0, 0, 0<br/>0, 0, 1, 0, 0, 0, 0, 0, 0, 0, 0, 0, 0, 0<br/>0, 0, 0]>, fillcolor="#f2c09c"] ;
277 -> 279 ;
280 [label=<gini = 0.5<br/>samples = 2<br/>value = [1, 0, 0, 0, 0, 0, 0, 0, 0, 0, 0, 0, 0, 0<br/>0, 0, 1, 0, 0, 0, 0, 0, 0, 0, 0, 0, 0, 0<br/>0, 0, 0]>, fillcolor="#ffffff"] ;
279 -> 280 ;
281 [label=<gini = 0.0<br/>samples = 1<br/>value = [1, 0, 0, 0, 0, 0, 0, 0, 0, 0, 0, 0, 0, 0<br/>0, 0, 0, 0, 0, 0, 0, 0, 0, 0, 0, 0, 0, 0<br/>0, 0, 0]>, fillcolor="#e58139"] ;
279 -> 281 ;
282 [label=<X<SUB>1</SUB> &le; 4.5<br/>gini = 0.833<br/>samples = 6<br/>value = [0, 0, 0, 0, 0, 1, 0, 0, 0, 0, 0, 0, 0, 1<br/>0, 0, 0, 0, 0, 0, 1, 0, 0, 0, 0, 1, 1, 1<br/>0, 0, 0]>, fillcolor="#ffffff"] ;
274 -> 282 ;
283 [label=<gini = 0.0<br/>samples = 1<br/>value = [0, 0, 0, 0, 0, 1, 0, 0, 0, 0, 0, 0, 0, 0<br/>0, 0, 0, 0, 0, 0, 0, 0, 0, 0, 0, 0, 0, 0<br/>0, 0, 0]>, fillcolor="#a3e539"] ;
282 -> 283 ;
284 [label=<X<SUB>2</SUB> &le; 2.5<br/>gini = 0.8<br/>samples = 5<br/>value = [0, 0, 0, 0, 0, 0, 0, 0, 0, 0, 0, 0, 0, 1<br/>0, 0, 0, 0, 0, 0, 1, 0, 0, 0, 0, 1, 1, 1<br/>0, 0, 0]>, fillcolor="#ffffff"] ;
282 -> 284 ;
285 [label=<gini = 0.0<br/>samples = 1<br/>value = [0, 0, 0, 0, 0, 0, 0, 0, 0, 0, 0, 0, 0, 0<br/>0, 0, 0, 0, 0, 0, 1, 0, 0, 0, 0, 0, 0, 0<br/>0, 0, 0]>, fillcolor="#6a39e5"] ;
284 -> 285 ;
286 [label=<X<SUB>2</SUB> &le; 3.5<br/>gini = 0.75<br/>samples = 4<br/>value = [0, 0, 0, 0, 0, 0, 0, 0, 0, 0, 0, 0, 0, 1<br/>0, 0, 0, 0, 0, 0, 0, 0, 0, 0, 0, 1, 1, 1<br/>0, 0, 0]>, fillcolor="#ffffff"] ;
284 -> 286 ;
287 [label=<gini = 0.5<br/>samples = 2<br/>value = [0, 0, 0, 0, 0, 0, 0, 0, 0, 0, 0, 0, 0, 1<br/>0, 0, 0, 0, 0, 0, 0, 0, 0, 0, 0, 0, 0, 1<br/>0, 0, 0]>, fillcolor="#ffffff"] ;
286 -> 287 ;
288 [label=<X<SUB>2</SUB> &le; 5.5<br/>gini = 0.5<br/>samples = 2<br/>value = [0, 0, 0, 0, 0, 0, 0, 0, 0, 0, 0, 0, 0, 0<br/>0, 0, 0, 0, 0, 0, 0, 0, 0, 0, 0, 1, 1, 0<br/>0, 0, 0]>, fillcolor="#ffffff"] ;
286 -> 288 ;
289 [label=<gini = 0.0<br/>samples = 1<br/>value = [0, 0, 0, 0, 0, 0, 0, 0, 0, 0, 0, 0, 0, 0<br/>0, 0, 0, 0, 0, 0, 0, 0, 0, 0, 0, 0, 1, 0<br/>0, 0, 0]>, fillcolor="#e5399a"] ;
288 -> 289 ;
290 [label=<gini = 0.0<br/>samples = 1<br/>value = [0, 0, 0, 0, 0, 0, 0, 0, 0, 0, 0, 0, 0, 0<br/>0, 0, 0, 0, 0, 0, 0, 0, 0, 0, 0, 1, 0, 0<br/>0, 0, 0]>, fillcolor="#e539ba"] ;
288 -> 290 ;
291 [label=<X<SUB>0</SUB> &le; 4.5<br/>gini = 0.805<br/>samples = 13<br/>value = [0, 0, 1, 0, 0, 0, 0, 0, 0, 0, 0, 0, 4, 0<br/>1, 1, 3, 2, 1, 0, 0, 0, 0, 0, 0, 0, 0, 0<br/>0, 0, 0]>, fillcolor="#ebfcf8"] ;
273 -> 291 ;
292 [label=<X<SUB>2</SUB> &le; 0.5<br/>gini = 0.688<br/>samples = 8<br/>value = [0, 0, 1, 0, 0, 0, 0, 0, 0, 0, 0, 0, 4, 0<br/>0, 1, 1, 1, 0, 0, 0, 0, 0, 0, 0, 0, 0, 0<br/>0, 0, 0]>, fillcolor="#aaf4e0"] ;
291 -> 292 ;
293 [label=<gini = 0.5<br/>samples = 2<br/>value = [0, 0, 0, 0, 0, 0, 0, 0, 0, 0, 0, 0, 0, 0<br/>0, 1, 1, 0, 0, 0, 0, 0, 0, 0, 0, 0, 0, 0<br/>0, 0, 0]>, fillcolor="#ffffff"] ;
292 -> 293 ;
294 [label=<X<SUB>2</SUB> &le; 4.5<br/>gini = 0.5<br/>samples = 6<br/>value = [0, 0, 1, 0, 0, 0, 0, 0, 0, 0, 0, 0, 4, 0<br/>0, 0, 0, 1, 0, 0, 0, 0, 0, 0, 0, 0, 0, 0<br/>0, 0, 0]>, fillcolor="#88efd4"] ;
292 -> 294 ;
295 [label=<gini = 0.0<br/>samples = 3<br/>value = [0, 0, 0, 0, 0, 0, 0, 0, 0, 0, 0, 0, 3, 0<br/>0, 0, 0, 0, 0, 0, 0, 0, 0, 0, 0, 0, 0, 0<br/>0, 0, 0]>, fillcolor="#39e5b7"] ;
294 -> 295 ;
296 [label=<X<SUB>0</SUB> &le; 3.5<br/>gini = 0.667<br/>samples = 3<br/>value = [0, 0, 1, 0, 0, 0, 0, 0, 0, 0, 0, 0, 1, 0<br/>0, 0, 0, 1, 0, 0, 0, 0, 0, 0, 0, 0, 0, 0<br/>0, 0, 0]>, fillcolor="#ffffff"] ;
294 -> 296 ;
297 [label=<X<SUB>1</SUB> &le; 4.5<br/>gini = 0.5<br/>samples = 2<br/>value = [0, 0, 0, 0, 0, 0, 0, 0, 0, 0, 0, 0, 1, 0<br/>0, 0, 0, 1, 0, 0, 0, 0, 0, 0, 0, 0, 0, 0<br/>0, 0, 0]>, fillcolor="#ffffff"] ;
296 -> 297 ;
298 [label=<gini = 0.0<br/>samples = 1<br/>value = [0, 0, 0, 0, 0, 0, 0, 0, 0, 0, 0, 0, 1, 0<br/>0, 0, 0, 0, 0, 0, 0, 0, 0, 0, 0, 0, 0, 0<br/>0, 0, 0]>, fillcolor="#39e5b7"] ;
297 -> 298 ;
299 [label=<gini = 0.0<br/>samples = 1<br/>value = [0, 0, 0, 0, 0, 0, 0, 0, 0, 0, 0, 0, 0, 0<br/>0, 0, 0, 1, 0, 0, 0, 0, 0, 0, 0, 0, 0, 0<br/>0, 0, 0]>, fillcolor="#396de5"] ;
297 -> 299 ;
300 [label=<gini = 0.0<br/>samples = 1<br/>value = [0, 0, 1, 0, 0, 0, 0, 0, 0, 0, 0, 0, 0, 0<br/>0, 0, 0, 0, 0, 0, 0, 0, 0, 0, 0, 0, 0, 0<br/>0, 0, 0]>, fillcolor="#e5c339"] ;
296 -> 300 ;
301 [label=<X<SUB>2</SUB> &le; 1.5<br/>gini = 0.72<br/>samples = 5<br/>value = [0, 0, 0, 0, 0, 0, 0, 0, 0, 0, 0, 0, 0, 0<br/>1, 0, 2, 1, 1, 0, 0, 0, 0, 0, 0, 0, 0, 0<br/>0, 0, 0]>, fillcolor="#cee3f8"] ;
291 -> 301 ;
302 [label=<gini = 0.0<br/>samples = 1<br/>value = [0, 0, 0, 0, 0, 0, 0, 0, 0, 0, 0, 0, 0, 0<br/>0, 0, 0, 0, 1, 0, 0, 0, 0, 0, 0, 0, 0, 0<br/>0, 0, 0]>, fillcolor="#394ae5"] ;
301 -> 302 ;
303 [label=<X<SUB>2</SUB> &le; 7.5<br/>gini = 0.625<br/>samples = 4<br/>value = [0, 0, 0, 0, 0, 0, 0, 0, 0, 0, 0, 0, 0, 0<br/>1, 0, 2, 1, 0, 0, 0, 0, 0, 0, 0, 0, 0, 0<br/>0, 0, 0]>, fillcolor="#bddaf6"] ;
301 -> 303 ;
304 [label=<X<SUB>2</SUB> &le; 5.0<br/>gini = 0.444<br/>samples = 3<br/>value = [0, 0, 0, 0, 0, 0, 0, 0, 0, 0, 0, 0, 0, 0<br/>1, 0, 2, 0, 0, 0, 0, 0, 0, 0, 0, 0, 0, 0<br/>0, 0, 0]>, fillcolor="#9cc7f2"] ;
303 -> 304 ;
305 [label=<gini = 0.0<br/>samples = 1<br/>value = [0, 0, 0, 0, 0, 0, 0, 0, 0, 0, 0, 0, 0, 0<br/>0, 0, 1, 0, 0, 0, 0, 0, 0, 0, 0, 0, 0, 0<br/>0, 0, 0]>, fillcolor="#398fe5"] ;
304 -> 305 ;
306 [label=<gini = 0.5<br/>samples = 2<br/>value = [0, 0, 0, 0, 0, 0, 0, 0, 0, 0, 0, 0, 0, 0<br/>1, 0, 1, 0, 0, 0, 0, 0, 0, 0, 0, 0, 0, 0<br/>0, 0, 0]>, fillcolor="#ffffff"] ;
304 -> 306 ;
307 [label=<gini = 0.0<br/>samples = 1<br/>value = [0, 0, 0, 0, 0, 0, 0, 0, 0, 0, 0, 0, 0, 0<br/>0, 0, 0, 1, 0, 0, 0, 0, 0, 0, 0, 0, 0, 0<br/>0, 0, 0]>, fillcolor="#396de5"] ;
303 -> 307 ;
308 [label=<X<SUB>0</SUB> &le; 1.5<br/>gini = 0.716<br/>samples = 9<br/>value = [0, 0, 0, 0, 0, 2, 0, 0, 0, 0, 0, 0, 4, 0<br/>0, 0, 0, 1, 0, 0, 1, 0, 0, 0, 0, 0, 0, 0<br/>1, 0, 0]>, fillcolor="#c6f8ea"] ;
272 -> 308 ;
309 [label=<X<SUB>2</SUB> &le; 7.5<br/>gini = 0.32<br/>samples = 5<br/>value = [0, 0, 0, 0, 0, 0, 0, 0, 0, 0, 0, 0, 4, 0<br/>0, 0, 0, 0, 0, 0, 0, 0, 0, 0, 0, 0, 0, 0<br/>1, 0, 0]>, fillcolor="#6aecc9"] ;
308 -> 309 ;
310 [label=<gini = 0.0<br/>samples = 4<br/>value = [0, 0, 0, 0, 0, 0, 0, 0, 0, 0, 0, 0, 4, 0<br/>0, 0, 0, 0, 0, 0, 0, 0, 0, 0, 0, 0, 0, 0<br/>0, 0, 0]>, fillcolor="#39e5b7"] ;
309 -> 310 ;
311 [label=<gini = 0.0<br/>samples = 1<br/>value = [0, 0, 0, 0, 0, 0, 0, 0, 0, 0, 0, 0, 0, 0<br/>0, 0, 0, 0, 0, 0, 0, 0, 0, 0, 0, 0, 0, 0<br/>1, 0, 0]>, fillcolor="#e53956"] ;
309 -> 311 ;
312 [label=<X<SUB>2</SUB> &le; 2.0<br/>gini = 0.625<br/>samples = 4<br/>value = [0, 0, 0, 0, 0, 2, 0, 0, 0, 0, 0, 0, 0, 0<br/>0, 0, 0, 1, 0, 0, 1, 0, 0, 0, 0, 0, 0, 0<br/>0, 0, 0]>, fillcolor="#e0f6bd"] ;
308 -> 312 ;
313 [label=<gini = 0.0<br/>samples = 1<br/>value = [0, 0, 0, 0, 0, 0, 0, 0, 0, 0, 0, 0, 0, 0<br/>0, 0, 0, 1, 0, 0, 0, 0, 0, 0, 0, 0, 0, 0<br/>0, 0, 0]>, fillcolor="#396de5"] ;
312 -> 313 ;
314 [label=<X<SUB>2</SUB> &le; 5.0<br/>gini = 0.444<br/>samples = 3<br/>value = [0, 0, 0, 0, 0, 2, 0, 0, 0, 0, 0, 0, 0, 0<br/>0, 0, 0, 0, 0, 0, 1, 0, 0, 0, 0, 0, 0, 0<br/>0, 0, 0]>, fillcolor="#d1f29c"] ;
312 -> 314 ;
315 [label=<gini = 0.0<br/>samples = 2<br/>value = [0, 0, 0, 0, 0, 2, 0, 0, 0, 0, 0, 0, 0, 0<br/>0, 0, 0, 0, 0, 0, 0, 0, 0, 0, 0, 0, 0, 0<br/>0, 0, 0]>, fillcolor="#a3e539"] ;
314 -> 315 ;
316 [label=<gini = 0.0<br/>samples = 1<br/>value = [0, 0, 0, 0, 0, 0, 0, 0, 0, 0, 0, 0, 0, 0<br/>0, 0, 0, 0, 0, 0, 1, 0, 0, 0, 0, 0, 0, 0<br/>0, 0, 0]>, fillcolor="#6a39e5"] ;
314 -> 316 ;
317 [label=<X<SUB>2</SUB> &le; 2.5<br/>gini = 0.878<br/>samples = 83<br/>value = [9, 0, 5, 0, 0, 5, 1, 0, 1, 2, 2, 0, 9, 0<br/>1, 1, 2, 22, 0, 0, 2, 0, 1, 0, 0, 9, 0, 4<br/>3, 4, 0]>, fillcolor="#dce5fa"] ;
247 -> 317 ;
318 [label=<X<SUB>0</SUB> &le; 8.5<br/>gini = 0.826<br/>samples = 22<br/>value = [3, 0, 1, 0, 0, 0, 1, 0, 1, 0, 0, 0, 0, 0<br/>0, 0, 1, 7, 0, 0, 0, 0, 0, 0, 0, 4, 0, 2<br/>1, 1, 0]>, fillcolor="#dee7fb"] ;
317 -> 318 ;
319 [label=<X<SUB>2</SUB> &le; 0.5<br/>gini = 0.857<br/>samples = 7<br/>value = [1, 0, 1, 0, 0, 0, 0, 0, 1, 0, 0, 0, 0, 0<br/>0, 0, 0, 1, 0, 0, 0, 0, 0, 0, 0, 1, 0, 1<br/>1, 0, 0]>, fillcolor="#ffffff"] ;
318 -> 319 ;
320 [label=<X<SUB>1</SUB> &le; 5.5<br/>gini = 0.5<br/>samples = 2<br/>value = [0, 0, 0, 0, 0, 0, 0, 0, 0, 0, 0, 0, 0, 0<br/>0, 0, 0, 1, 0, 0, 0, 0, 0, 0, 0, 0, 0, 1<br/>0, 0, 0]>, fillcolor="#ffffff"] ;
319 -> 320 ;
321 [label=<gini = 0.0<br/>samples = 1<br/>value = [0, 0, 0, 0, 0, 0, 0, 0, 0, 0, 0, 0, 0, 0<br/>0, 0, 0, 0, 0, 0, 0, 0, 0, 0, 0, 0, 0, 1<br/>0, 0, 0]>, fillcolor="#e53978"] ;
320 -> 321 ;
322 [label=<gini = 0.0<br/>samples = 1<br/>value = [0, 0, 0, 0, 0, 0, 0, 0, 0, 0, 0, 0, 0, 0<br/>0, 0, 0, 1, 0, 0, 0, 0, 0, 0, 0, 0, 0, 0<br/>0, 0, 0]>, fillcolor="#396de5"] ;
320 -> 322 ;
323 [label=<X<SUB>1</SUB> &le; 4.5<br/>gini = 0.8<br/>samples = 5<br/>value = [1, 0, 1, 0, 0, 0, 0, 0, 1, 0, 0, 0, 0, 0<br/>0, 0, 0, 0, 0, 0, 0, 0, 0, 0, 0, 1, 0, 0<br/>1, 0, 0]>, fillcolor="#ffffff"] ;
319 -> 323 ;
324 [label=<X<SUB>2</SUB> &le; 1.5<br/>gini = 0.667<br/>samples = 3<br/>value = [1, 0, 0, 0, 0, 0, 0, 0, 1, 0, 0, 0, 0, 0<br/>0, 0, 0, 0, 0, 0, 0, 0, 0, 0, 0, 0, 0, 0<br/>1, 0, 0]>, fillcolor="#ffffff"] ;
323 -> 324 ;
325 [label=<gini = 0.0<br/>samples = 1<br/>value = [0, 0, 0, 0, 0, 0, 0, 0, 1, 0, 0, 0, 0, 0<br/>0, 0, 0, 0, 0, 0, 0, 0, 0, 0, 0, 0, 0, 0<br/>0, 0, 0]>, fillcolor="#41e539"] ;
324 -> 325 ;
326 [label=<gini = 0.5<br/>samples = 2<br/>value = [1, 0, 0, 0, 0, 0, 0, 0, 0, 0, 0, 0, 0, 0<br/>0, 0, 0, 0, 0, 0, 0, 0, 0, 0, 0, 0, 0, 0<br/>1, 0, 0]>, fillcolor="#ffffff"] ;
324 -> 326 ;
327 [label=<X<SUB>1</SUB> &le; 5.5<br/>gini = 0.5<br/>samples = 2<br/>value = [0, 0, 1, 0, 0, 0, 0, 0, 0, 0, 0, 0, 0, 0<br/>0, 0, 0, 0, 0, 0, 0, 0, 0, 0, 0, 1, 0, 0<br/>0, 0, 0]>, fillcolor="#ffffff"] ;
323 -> 327 ;
328 [label=<gini = 0.0<br/>samples = 1<br/>value = [0, 0, 0, 0, 0, 0, 0, 0, 0, 0, 0, 0, 0, 0<br/>0, 0, 0, 0, 0, 0, 0, 0, 0, 0, 0, 1, 0, 0<br/>0, 0, 0]>, fillcolor="#e539ba"] ;
327 -> 328 ;
329 [label=<gini = 0.0<br/>samples = 1<br/>value = [0, 0, 1, 0, 0, 0, 0, 0, 0, 0, 0, 0, 0, 0<br/>0, 0, 0, 0, 0, 0, 0, 0, 0, 0, 0, 0, 0, 0<br/>0, 0, 0]>, fillcolor="#e5c339"] ;
327 -> 329 ;
330 [label=<X<SUB>1</SUB> &le; 4.5<br/>gini = 0.764<br/>samples = 15<br/>value = [2, 0, 0, 0, 0, 0, 1, 0, 0, 0, 0, 0, 0, 0<br/>0, 0, 1, 6, 0, 0, 0, 0, 0, 0, 0, 3, 0, 1<br/>0, 1, 0]>, fillcolor="#cedaf8"] ;
318 -> 330 ;
331 [label=<X<SUB>0</SUB> &le; 9.5<br/>gini = 0.691<br/>samples = 9<br/>value = [2, 0, 0, 0, 0, 0, 0, 0, 0, 0, 0, 0, 0, 0<br/>0, 0, 0, 4, 0, 0, 0, 0, 0, 0, 0, 2, 0, 1<br/>0, 0, 0]>, fillcolor="#c6d5f8"] ;
330 -> 331 ;
332 [label=<X<SUB>2</SUB> &le; 1.0<br/>gini = 0.625<br/>samples = 4<br/>value = [1, 0, 0, 0, 0, 0, 0, 0, 0, 0, 0, 0, 0, 0<br/>0, 0, 0, 1, 0, 0, 0, 0, 0, 0, 0, 2, 0, 0<br/>0, 0, 0]>, fillcolor="#f6bde8"] ;
331 -> 332 ;
333 [label=<gini = 0.667<br/>samples = 3<br/>value = [1, 0, 0, 0, 0, 0, 0, 0, 0, 0, 0, 0, 0, 0<br/>0, 0, 0, 1, 0, 0, 0, 0, 0, 0, 0, 1, 0, 0<br/>0, 0, 0]>, fillcolor="#ffffff"] ;
332 -> 333 ;
334 [label=<gini = 0.0<br/>samples = 1<br/>value = [0, 0, 0, 0, 0, 0, 0, 0, 0, 0, 0, 0, 0, 0<br/>0, 0, 0, 0, 0, 0, 0, 0, 0, 0, 0, 1, 0, 0<br/>0, 0, 0]>, fillcolor="#e539ba"] ;
332 -> 334 ;
335 [label=<gini = 0.56<br/>samples = 5<br/>value = [1, 0, 0, 0, 0, 0, 0, 0, 0, 0, 0, 0, 0, 0<br/>0, 0, 0, 3, 0, 0, 0, 0, 0, 0, 0, 0, 0, 1<br/>0, 0, 0]>, fillcolor="#9cb6f2"] ;
331 -> 335 ;
336 [label=<X<SUB>2</SUB> &le; 0.5<br/>gini = 0.778<br/>samples = 6<br/>value = [0, 0, 0, 0, 0, 0, 1, 0, 0, 0, 0, 0, 0, 0<br/>0, 0, 1, 2, 0, 0, 0, 0, 0, 0, 0, 1, 0, 0<br/>0, 1, 0]>, fillcolor="#d7e2fa"] ;
330 -> 336 ;
337 [label=<X<SUB>1</SUB> &le; 5.5<br/>gini = 0.444<br/>samples = 3<br/>value = [0, 0, 0, 0, 0, 0, 1, 0, 0, 0, 0, 0, 0, 0<br/>0, 0, 0, 2, 0, 0, 0, 0, 0, 0, 0, 0, 0, 0<br/>0, 0, 0]>, fillcolor="#9cb6f2"] ;
336 -> 337 ;
338 [label=<X<SUB>0</SUB> &le; 9.5<br/>gini = 0.5<br/>samples = 2<br/>value = [0, 0, 0, 0, 0, 0, 1, 0, 0, 0, 0, 0, 0, 0<br/>0, 0, 0, 1, 0, 0, 0, 0, 0, 0, 0, 0, 0, 0<br/>0, 0, 0]>, fillcolor="#ffffff"] ;
337 -> 338 ;
339 [label=<gini = 0.0<br/>samples = 1<br/>value = [0, 0, 0, 0, 0, 0, 1, 0, 0, 0, 0, 0, 0, 0<br/>0, 0, 0, 0, 0, 0, 0, 0, 0, 0, 0, 0, 0, 0<br/>0, 0, 0]>, fillcolor="#83e539"] ;
338 -> 339 ;
340 [label=<gini = 0.0<br/>samples = 1<br/>value = [0, 0, 0, 0, 0, 0, 0, 0, 0, 0, 0, 0, 0, 0<br/>0, 0, 0, 1, 0, 0, 0, 0, 0, 0, 0, 0, 0, 0<br/>0, 0, 0]>, fillcolor="#396de5"] ;
338 -> 340 ;
341 [label=<gini = 0.0<br/>samples = 1<br/>value = [0, 0, 0, 0, 0, 0, 0, 0, 0, 0, 0, 0, 0, 0<br/>0, 0, 0, 1, 0, 0, 0, 0, 0, 0, 0, 0, 0, 0<br/>0, 0, 0]>, fillcolor="#396de5"] ;
337 -> 341 ;
342 [label=<X<SUB>0</SUB> &le; 9.5<br/>gini = 0.667<br/>samples = 3<br/>value = [0, 0, 0, 0, 0, 0, 0, 0, 0, 0, 0, 0, 0, 0<br/>0, 0, 1, 0, 0, 0, 0, 0, 0, 0, 0, 1, 0, 0<br/>0, 1, 0]>, fillcolor="#ffffff"] ;
336 -> 342 ;
343 [label=<gini = 0.0<br/>samples = 1<br/>value = [0, 0, 0, 0, 0, 0, 0, 0, 0, 0, 0, 0, 0, 0<br/>0, 0, 1, 0, 0, 0, 0, 0, 0, 0, 0, 0, 0, 0<br/>0, 0, 0]>, fillcolor="#398fe5"] ;
342 -> 343 ;
344 [label=<X<SUB>1</SUB> &le; 5.5<br/>gini = 0.5<br/>samples = 2<br/>value = [0, 0, 0, 0, 0, 0, 0, 0, 0, 0, 0, 0, 0, 0<br/>0, 0, 0, 0, 0, 0, 0, 0, 0, 0, 0, 1, 0, 0<br/>0, 1, 0]>, fillcolor="#ffffff"] ;
342 -> 344 ;
345 [label=<gini = 0.0<br/>samples = 1<br/>value = [0, 0, 0, 0, 0, 0, 0, 0, 0, 0, 0, 0, 0, 0<br/>0, 0, 0, 0, 0, 0, 0, 0, 0, 0, 0, 0, 0, 0<br/>0, 1, 0]>, fillcolor="#e53c39"] ;
344 -> 345 ;
346 [label=<gini = 0.0<br/>samples = 1<br/>value = [0, 0, 0, 0, 0, 0, 0, 0, 0, 0, 0, 0, 0, 0<br/>0, 0, 0, 0, 0, 0, 0, 0, 0, 0, 0, 1, 0, 0<br/>0, 0, 0]>, fillcolor="#e539ba"] ;
344 -> 346 ;
347 [label=<X<SUB>0</SUB> &le; 7.5<br/>gini = 0.881<br/>samples = 61<br/>value = [6, 0, 4, 0, 0, 5, 0, 0, 0, 2, 2, 0, 9, 0<br/>1, 1, 1, 15, 0, 0, 2, 0, 1, 0, 0, 5, 0, 2<br/>2, 3, 0]>, fillcolor="#e8eefc"] ;
317 -> 347 ;
348 [label=<X<SUB>2</SUB> &le; 5.0<br/>gini = 0.84<br/>samples = 10<br/>value = [2, 0, 1, 0, 0, 1, 0, 0, 0, 0, 1, 0, 0, 0<br/>0, 0, 0, 2, 0, 0, 0, 0, 0, 0, 0, 0, 0, 0<br/>2, 1, 0]>, fillcolor="#ffffff"] ;
347 -> 348 ;
349 [label=<X<SUB>1</SUB> &le; 4.5<br/>gini = 0.72<br/>samples = 5<br/>value = [0, 0, 1, 0, 0, 1, 0, 0, 0, 0, 1, 0, 0, 0<br/>0, 0, 0, 2, 0, 0, 0, 0, 0, 0, 0, 0, 0, 0<br/>0, 0, 0]>, fillcolor="#cedaf8"] ;
348 -> 349 ;
350 [label=<gini = 0.5<br/>samples = 2<br/>value = [0, 0, 1, 0, 0, 0, 0, 0, 0, 0, 0, 0, 0, 0<br/>0, 0, 0, 1, 0, 0, 0, 0, 0, 0, 0, 0, 0, 0<br/>0, 0, 0]>, fillcolor="#ffffff"] ;
349 -> 350 ;
351 [label=<X<SUB>1</SUB> &le; 5.5<br/>gini = 0.667<br/>samples = 3<br/>value = [0, 0, 0, 0, 0, 1, 0, 0, 0, 0, 1, 0, 0, 0<br/>0, 0, 0, 1, 0, 0, 0, 0, 0, 0, 0, 0, 0, 0<br/>0, 0, 0]>, fillcolor="#ffffff"] ;
349 -> 351 ;
352 [label=<gini = 0.0<br/>samples = 1<br/>value = [0, 0, 0, 0, 0, 1, 0, 0, 0, 0, 0, 0, 0, 0<br/>0, 0, 0, 0, 0, 0, 0, 0, 0, 0, 0, 0, 0, 0<br/>0, 0, 0]>, fillcolor="#a3e539"] ;
351 -> 352 ;
353 [label=<X<SUB>2</SUB> &le; 3.5<br/>gini = 0.5<br/>samples = 2<br/>value = [0, 0, 0, 0, 0, 0, 0, 0, 0, 0, 1, 0, 0, 0<br/>0, 0, 0, 1, 0, 0, 0, 0, 0, 0, 0, 0, 0, 0<br/>0, 0, 0]>, fillcolor="#ffffff"] ;
351 -> 353 ;
354 [label=<gini = 0.0<br/>samples = 1<br/>value = [0, 0, 0, 0, 0, 0, 0, 0, 0, 0, 0, 0, 0, 0<br/>0, 0, 0, 1, 0, 0, 0, 0, 0, 0, 0, 0, 0, 0<br/>0, 0, 0]>, fillcolor="#396de5"] ;
353 -> 354 ;
355 [label=<gini = 0.0<br/>samples = 1<br/>value = [0, 0, 0, 0, 0, 0, 0, 0, 0, 0, 1, 0, 0, 0<br/>0, 0, 0, 0, 0, 0, 0, 0, 0, 0, 0, 0, 0, 0<br/>0, 0, 0]>, fillcolor="#39e575"] ;
353 -> 355 ;
356 [label=<X<SUB>2</SUB> &le; 7.5<br/>gini = 0.64<br/>samples = 5<br/>value = [2, 0, 0, 0, 0, 0, 0, 0, 0, 0, 0, 0, 0, 0<br/>0, 0, 0, 0, 0, 0, 0, 0, 0, 0, 0, 0, 0, 0<br/>2, 1, 0]>, fillcolor="#ffffff"] ;
348 -> 356 ;
357 [label=<X<SUB>2</SUB> &le; 6.5<br/>gini = 0.5<br/>samples = 2<br/>value = [1, 0, 0, 0, 0, 0, 0, 0, 0, 0, 0, 0, 0, 0<br/>0, 0, 0, 0, 0, 0, 0, 0, 0, 0, 0, 0, 0, 0<br/>0, 1, 0]>, fillcolor="#ffffff"] ;
356 -> 357 ;
358 [label=<gini = 0.0<br/>samples = 1<br/>value = [1, 0, 0, 0, 0, 0, 0, 0, 0, 0, 0, 0, 0, 0<br/>0, 0, 0, 0, 0, 0, 0, 0, 0, 0, 0, 0, 0, 0<br/>0, 0, 0]>, fillcolor="#e58139"] ;
357 -> 358 ;
359 [label=<gini = 0.0<br/>samples = 1<br/>value = [0, 0, 0, 0, 0, 0, 0, 0, 0, 0, 0, 0, 0, 0<br/>0, 0, 0, 0, 0, 0, 0, 0, 0, 0, 0, 0, 0, 0<br/>0, 1, 0]>, fillcolor="#e53c39"] ;
357 -> 359 ;
360 [label=<X<SUB>1</SUB> &le; 5.5<br/>gini = 0.444<br/>samples = 3<br/>value = [1, 0, 0, 0, 0, 0, 0, 0, 0, 0, 0, 0, 0, 0<br/>0, 0, 0, 0, 0, 0, 0, 0, 0, 0, 0, 0, 0, 0<br/>2, 0, 0]>, fillcolor="#f29caa"] ;
356 -> 360 ;
361 [label=<gini = 0.0<br/>samples = 1<br/>value = [0, 0, 0, 0, 0, 0, 0, 0, 0, 0, 0, 0, 0, 0<br/>0, 0, 0, 0, 0, 0, 0, 0, 0, 0, 0, 0, 0, 0<br/>1, 0, 0]>, fillcolor="#e53956"] ;
360 -> 361 ;
362 [label=<gini = 0.5<br/>samples = 2<br/>value = [1, 0, 0, 0, 0, 0, 0, 0, 0, 0, 0, 0, 0, 0<br/>0, 0, 0, 0, 0, 0, 0, 0, 0, 0, 0, 0, 0, 0<br/>1, 0, 0]>, fillcolor="#ffffff"] ;
360 -> 362 ;
363 [label=<X<SUB>2</SUB> &le; 5.5<br/>gini = 0.87<br/>samples = 51<br/>value = [4, 0, 3, 0, 0, 4, 0, 0, 0, 2, 1, 0, 9, 0<br/>1, 1, 1, 13, 0, 0, 2, 0, 1, 0, 0, 5, 0, 2<br/>0, 2, 0]>, fillcolor="#ecf1fd"] ;
347 -> 363 ;
364 [label=<X<SUB>2</SUB> &le; 3.5<br/>gini = 0.876<br/>samples = 22<br/>value = [3, 0, 2, 0, 0, 1, 0, 0, 0, 1, 0, 0, 5, 0<br/>0, 1, 1, 3, 0, 0, 2, 0, 0, 0, 0, 2, 0, 1<br/>0, 0, 0]>, fillcolor="#eafcf7"] ;
363 -> 364 ;
365 [label=<X<SUB>1</SUB> &le; 4.5<br/>gini = 0.81<br/>samples = 11<br/>value = [3, 0, 0, 0, 0, 1, 0, 0, 0, 0, 0, 0, 2, 0<br/>0, 0, 0, 2, 0, 0, 2, 0, 0, 0, 0, 1, 0, 0<br/>0, 0, 0]>, fillcolor="#fcf1e9"] ;
364 -> 365 ;
366 [label=<gini = 0.5<br/>samples = 2<br/>value = [1, 0, 0, 0, 0, 0, 0, 0, 0, 0, 0, 0, 0, 0<br/>0, 0, 0, 1, 0, 0, 0, 0, 0, 0, 0, 0, 0, 0<br/>0, 0, 0]>, fillcolor="#ffffff"] ;
365 -> 366 ;
367 [label=<X<SUB>1</SUB> &le; 5.5<br/>gini = 0.815<br/>samples = 9<br/>value = [2, 0, 0, 0, 0, 1, 0, 0, 0, 0, 0, 0, 2, 0<br/>0, 0, 0, 1, 0, 0, 2, 0, 0, 0, 0, 1, 0, 0<br/>0, 0, 0]>, fillcolor="#ffffff"] ;
365 -> 367 ;
368 [label=<X<SUB>0</SUB> &le; 9.0<br/>gini = 0.75<br/>samples = 4<br/>value = [1, 0, 0, 0, 0, 0, 0, 0, 0, 0, 0, 0, 1, 0<br/>0, 0, 0, 0, 0, 0, 1, 0, 0, 0, 0, 1, 0, 0<br/>0, 0, 0]>, fillcolor="#ffffff"] ;
367 -> 368 ;
369 [label=<gini = 0.0<br/>samples = 1<br/>value = [1, 0, 0, 0, 0, 0, 0, 0, 0, 0, 0, 0, 0, 0<br/>0, 0, 0, 0, 0, 0, 0, 0, 0, 0, 0, 0, 0, 0<br/>0, 0, 0]>, fillcolor="#e58139"] ;
368 -> 369 ;
370 [label=<gini = 0.667<br/>samples = 3<br/>value = [0, 0, 0, 0, 0, 0, 0, 0, 0, 0, 0, 0, 1, 0<br/>0, 0, 0, 0, 0, 0, 1, 0, 0, 0, 0, 1, 0, 0<br/>0, 0, 0]>, fillcolor="#ffffff"] ;
368 -> 370 ;
371 [label=<X<SUB>0</SUB> &le; 8.5<br/>gini = 0.8<br/>samples = 5<br/>value = [1, 0, 0, 0, 0, 1, 0, 0, 0, 0, 0, 0, 1, 0<br/>0, 0, 0, 1, 0, 0, 1, 0, 0, 0, 0, 0, 0, 0<br/>0, 0, 0]>, fillcolor="#ffffff"] ;
367 -> 371 ;
372 [label=<gini = 0.667<br/>samples = 3<br/>value = [0, 0, 0, 0, 0, 0, 0, 0, 0, 0, 0, 0, 1, 0<br/>0, 0, 0, 1, 0, 0, 1, 0, 0, 0, 0, 0, 0, 0<br/>0, 0, 0]>, fillcolor="#ffffff"] ;
371 -> 372 ;
373 [label=<X<SUB>0</SUB> &le; 9.5<br/>gini = 0.5<br/>samples = 2<br/>value = [1, 0, 0, 0, 0, 1, 0, 0, 0, 0, 0, 0, 0, 0<br/>0, 0, 0, 0, 0, 0, 0, 0, 0, 0, 0, 0, 0, 0<br/>0, 0, 0]>, fillcolor="#ffffff"] ;
371 -> 373 ;
374 [label=<gini = 0.0<br/>samples = 1<br/>value = [0, 0, 0, 0, 0, 1, 0, 0, 0, 0, 0, 0, 0, 0<br/>0, 0, 0, 0, 0, 0, 0, 0, 0, 0, 0, 0, 0, 0<br/>0, 0, 0]>, fillcolor="#a3e539"] ;
373 -> 374 ;
375 [label=<gini = 0.0<br/>samples = 1<br/>value = [1, 0, 0, 0, 0, 0, 0, 0, 0, 0, 0, 0, 0, 0<br/>0, 0, 0, 0, 0, 0, 0, 0, 0, 0, 0, 0, 0, 0<br/>0, 0, 0]>, fillcolor="#e58139"] ;
373 -> 375 ;
376 [label=<X<SUB>1</SUB> &le; 5.5<br/>gini = 0.843<br/>samples = 11<br/>value = [0, 0, 2, 0, 0, 0, 0, 0, 0, 1, 0, 0, 3, 0<br/>0, 1, 1, 1, 0, 0, 0, 0, 0, 0, 0, 1, 0, 1<br/>0, 0, 0]>, fillcolor="#e9fcf7"] ;
364 -> 376 ;
377 [label=<X<SUB>1</SUB> &le; 4.5<br/>gini = 0.79<br/>samples = 9<br/>value = [0, 0, 2, 0, 0, 0, 0, 0, 0, 1, 0, 0, 3, 0<br/>0, 1, 1, 0, 0, 0, 0, 0, 0, 0, 0, 1, 0, 0<br/>0, 0, 0]>, fillcolor="#e3fbf5"] ;
376 -> 377 ;
378 [label=<X<SUB>0</SUB> &le; 9.0<br/>gini = 0.625<br/>samples = 4<br/>value = [0, 0, 0, 0, 0, 0, 0, 0, 0, 1, 0, 0, 2, 0<br/>0, 0, 1, 0, 0, 0, 0, 0, 0, 0, 0, 0, 0, 0<br/>0, 0, 0]>, fillcolor="#bdf6e7"] ;
377 -> 378 ;
379 [label=<gini = 0.444<br/>samples = 3<br/>value = [0, 0, 0, 0, 0, 0, 0, 0, 0, 1, 0, 0, 2, 0<br/>0, 0, 0, 0, 0, 0, 0, 0, 0, 0, 0, 0, 0, 0<br/>0, 0, 0]>, fillcolor="#9cf2db"] ;
378 -> 379 ;
380 [label=<gini = 0.0<br/>samples = 1<br/>value = [0, 0, 0, 0, 0, 0, 0, 0, 0, 0, 0, 0, 0, 0<br/>0, 0, 1, 0, 0, 0, 0, 0, 0, 0, 0, 0, 0, 0<br/>0, 0, 0]>, fillcolor="#398fe5"] ;
378 -> 380 ;
381 [label=<X<SUB>0</SUB> &le; 8.5<br/>gini = 0.72<br/>samples = 5<br/>value = [0, 0, 2, 0, 0, 0, 0, 0, 0, 0, 0, 0, 1, 0<br/>0, 1, 0, 0, 0, 0, 0, 0, 0, 0, 0, 1, 0, 0<br/>0, 0, 0]>, fillcolor="#f8f0ce"] ;
377 -> 381 ;
382 [label=<gini = 0.5<br/>samples = 2<br/>value = [0, 0, 1, 0, 0, 0, 0, 0, 0, 0, 0, 0, 0, 0<br/>0, 0, 0, 0, 0, 0, 0, 0, 0, 0, 0, 1, 0, 0<br/>0, 0, 0]>, fillcolor="#ffffff"] ;
381 -> 382 ;
383 [label=<X<SUB>0</SUB> &le; 9.5<br/>gini = 0.667<br/>samples = 3<br/>value = [0, 0, 1, 0, 0, 0, 0, 0, 0, 0, 0, 0, 1, 0<br/>0, 1, 0, 0, 0, 0, 0, 0, 0, 0, 0, 0, 0, 0<br/>0, 0, 0]>, fillcolor="#ffffff"] ;
381 -> 383 ;
384 [label=<gini = 0.0<br/>samples = 1<br/>value = [0, 0, 0, 0, 0, 0, 0, 0, 0, 0, 0, 0, 0, 0<br/>0, 1, 0, 0, 0, 0, 0, 0, 0, 0, 0, 0, 0, 0<br/>0, 0, 0]>, fillcolor="#39aee5"] ;
383 -> 384 ;
385 [label=<gini = 0.5<br/>samples = 2<br/>value = [0, 0, 1, 0, 0, 0, 0, 0, 0, 0, 0, 0, 1, 0<br/>0, 0, 0, 0, 0, 0, 0, 0, 0, 0, 0, 0, 0, 0<br/>0, 0, 0]>, fillcolor="#ffffff"] ;
383 -> 385 ;
386 [label=<X<SUB>2</SUB> &le; 4.5<br/>gini = 0.5<br/>samples = 2<br/>value = [0, 0, 0, 0, 0, 0, 0, 0, 0, 0, 0, 0, 0, 0<br/>0, 0, 0, 1, 0, 0, 0, 0, 0, 0, 0, 0, 0, 1<br/>0, 0, 0]>, fillcolor="#ffffff"] ;
376 -> 386 ;
387 [label=<gini = 0.0<br/>samples = 1<br/>value = [0, 0, 0, 0, 0, 0, 0, 0, 0, 0, 0, 0, 0, 0<br/>0, 0, 0, 1, 0, 0, 0, 0, 0, 0, 0, 0, 0, 0<br/>0, 0, 0]>, fillcolor="#396de5"] ;
386 -> 387 ;
388 [label=<gini = 0.0<br/>samples = 1<br/>value = [0, 0, 0, 0, 0, 0, 0, 0, 0, 0, 0, 0, 0, 0<br/>0, 0, 0, 0, 0, 0, 0, 0, 0, 0, 0, 0, 0, 1<br/>0, 0, 0]>, fillcolor="#e53978"] ;
386 -> 388 ;
389 [label=<X<SUB>1</SUB> &le; 4.5<br/>gini = 0.828<br/>samples = 29<br/>value = [1, 0, 1, 0, 0, 3, 0, 0, 0, 1, 1, 0, 4, 0<br/>1, 0, 0, 10, 0, 0, 0, 0, 1, 0, 0, 3, 0, 1<br/>0, 2, 0]>, fillcolor="#cfdcf9"] ;
363 -> 389 ;
390 [label=<X<SUB>2</SUB> &le; 6.5<br/>gini = 0.76<br/>samples = 10<br/>value = [0, 0, 1, 0, 0, 2, 0, 0, 0, 1, 1, 0, 1, 0<br/>0, 0, 0, 4, 0, 0, 0, 0, 0, 0, 0, 0, 0, 0<br/>0, 0, 0]>, fillcolor="#cedaf8"] ;
389 -> 390 ;
391 [label=<X<SUB>0</SUB> &le; 9.5<br/>gini = 0.56<br/>samples = 5<br/>value = [0, 0, 0, 0, 0, 0, 0, 0, 0, 1, 0, 0, 1, 0<br/>0, 0, 0, 3, 0, 0, 0, 0, 0, 0, 0, 0, 0, 0<br/>0, 0, 0]>, fillcolor="#9cb6f2"] ;
390 -> 391 ;
392 [label=<gini = 0.0<br/>samples = 2<br/>value = [0, 0, 0, 0, 0, 0, 0, 0, 0, 0, 0, 0, 0, 0<br/>0, 0, 0, 2, 0, 0, 0, 0, 0, 0, 0, 0, 0, 0<br/>0, 0, 0]>, fillcolor="#396de5"] ;
391 -> 392 ;
393 [label=<gini = 0.667<br/>samples = 3<br/>value = [0, 0, 0, 0, 0, 0, 0, 0, 0, 1, 0, 0, 1, 0<br/>0, 0, 0, 1, 0, 0, 0, 0, 0, 0, 0, 0, 0, 0<br/>0, 0, 0]>, fillcolor="#ffffff"] ;
391 -> 393 ;
394 [label=<X<SUB>0</SUB> &le; 9.5<br/>gini = 0.72<br/>samples = 5<br/>value = [0, 0, 1, 0, 0, 2, 0, 0, 0, 0, 1, 0, 0, 0<br/>0, 0, 0, 1, 0, 0, 0, 0, 0, 0, 0, 0, 0, 0<br/>0, 0, 0]>, fillcolor="#e8f8ce"] ;
390 -> 394 ;
395 [label=<gini = 0.444<br/>samples = 3<br/>value = [0, 0, 0, 0, 0, 2, 0, 0, 0, 0, 1, 0, 0, 0<br/>0, 0, 0, 0, 0, 0, 0, 0, 0, 0, 0, 0, 0, 0<br/>0, 0, 0]>, fillcolor="#d1f29c"] ;
394 -> 395 ;
396 [label=<X<SUB>2</SUB> &le; 7.5<br/>gini = 0.5<br/>samples = 2<br/>value = [0, 0, 1, 0, 0, 0, 0, 0, 0, 0, 0, 0, 0, 0<br/>0, 0, 0, 1, 0, 0, 0, 0, 0, 0, 0, 0, 0, 0<br/>0, 0, 0]>, fillcolor="#ffffff"] ;
394 -> 396 ;
397 [label=<gini = 0.0<br/>samples = 1<br/>value = [0, 0, 0, 0, 0, 0, 0, 0, 0, 0, 0, 0, 0, 0<br/>0, 0, 0, 1, 0, 0, 0, 0, 0, 0, 0, 0, 0, 0<br/>0, 0, 0]>, fillcolor="#396de5"] ;
396 -> 397 ;
398 [label=<gini = 0.0<br/>samples = 1<br/>value = [0, 0, 1, 0, 0, 0, 0, 0, 0, 0, 0, 0, 0, 0<br/>0, 0, 0, 0, 0, 0, 0, 0, 0, 0, 0, 0, 0, 0<br/>0, 0, 0]>, fillcolor="#e5c339"] ;
396 -> 398 ;
399 [label=<X<SUB>2</SUB> &le; 6.5<br/>gini = 0.825<br/>samples = 19<br/>value = [1, 0, 0, 0, 0, 1, 0, 0, 0, 0, 0, 0, 3, 0<br/>1, 0, 0, 6, 0, 0, 0, 0, 1, 0, 0, 3, 0, 1<br/>0, 2, 0]>, fillcolor="#dae4fa"] ;
389 -> 399 ;
400 [label=<X<SUB>0</SUB> &le; 9.0<br/>gini = 0.72<br/>samples = 5<br/>value = [0, 0, 0, 0, 0, 0, 0, 0, 0, 0, 0, 0, 1, 0<br/>0, 0, 0, 1, 0, 0, 0, 0, 0, 0, 0, 2, 0, 1<br/>0, 0, 0]>, fillcolor="#f8ceee"] ;
399 -> 400 ;
401 [label=<gini = 0.5<br/>samples = 2<br/>value = [0, 0, 0, 0, 0, 0, 0, 0, 0, 0, 0, 0, 0, 0<br/>0, 0, 0, 1, 0, 0, 0, 0, 0, 0, 0, 1, 0, 0<br/>0, 0, 0]>, fillcolor="#ffffff"] ;
400 -> 401 ;
402 [label=<gini = 0.667<br/>samples = 3<br/>value = [0, 0, 0, 0, 0, 0, 0, 0, 0, 0, 0, 0, 1, 0<br/>0, 0, 0, 0, 0, 0, 0, 0, 0, 0, 0, 1, 0, 1<br/>0, 0, 0]>, fillcolor="#ffffff"] ;
400 -> 402 ;
403 [label=<X<SUB>0</SUB> &le; 9.5<br/>gini = 0.806<br/>samples = 14<br/>value = [1, 0, 0, 0, 0, 1, 0, 0, 0, 0, 0, 0, 2, 0<br/>1, 0, 0, 5, 0, 0, 0, 0, 1, 0, 0, 1, 0, 0<br/>0, 2, 0]>, fillcolor="#cedaf8"] ;
399 -> 403 ;
404 [label=<X<SUB>2</SUB> &le; 7.5<br/>gini = 0.826<br/>samples = 11<br/>value = [1, 0, 0, 0, 0, 1, 0, 0, 0, 0, 0, 0, 2, 0<br/>1, 0, 0, 3, 0, 0, 0, 0, 1, 0, 0, 0, 0, 0<br/>0, 2, 0]>, fillcolor="#e9effc"] ;
403 -> 404 ;
405 [label=<X<SUB>0</SUB> &le; 8.5<br/>gini = 0.815<br/>samples = 9<br/>value = [1, 0, 0, 0, 0, 1, 0, 0, 0, 0, 0, 0, 1, 0<br/>1, 0, 0, 3, 0, 0, 0, 0, 1, 0, 0, 0, 0, 0<br/>0, 1, 0]>, fillcolor="#cedaf8"] ;
404 -> 405 ;
406 [label=<X<SUB>1</SUB> &le; 5.5<br/>gini = 0.625<br/>samples = 4<br/>value = [0, 0, 0, 0, 0, 0, 0, 0, 0, 0, 0, 0, 0, 0<br/>1, 0, 0, 2, 0, 0, 0, 0, 0, 0, 0, 0, 0, 0<br/>0, 1, 0]>, fillcolor="#bdcef6"] ;
405 -> 406 ;
407 [label=<gini = 0.5<br/>samples = 2<br/>value = [0, 0, 0, 0, 0, 0, 0, 0, 0, 0, 0, 0, 0, 0<br/>1, 0, 0, 1, 0, 0, 0, 0, 0, 0, 0, 0, 0, 0<br/>0, 0, 0]>, fillcolor="#ffffff"] ;
406 -> 407 ;
408 [label=<gini = 0.5<br/>samples = 2<br/>value = [0, 0, 0, 0, 0, 0, 0, 0, 0, 0, 0, 0, 0, 0<br/>0, 0, 0, 1, 0, 0, 0, 0, 0, 0, 0, 0, 0, 0<br/>0, 1, 0]>, fillcolor="#ffffff"] ;
406 -> 408 ;
409 [label=<X<SUB>1</SUB> &le; 5.5<br/>gini = 0.8<br/>samples = 5<br/>value = [1, 0, 0, 0, 0, 1, 0, 0, 0, 0, 0, 0, 1, 0<br/>0, 0, 0, 1, 0, 0, 0, 0, 1, 0, 0, 0, 0, 0<br/>0, 0, 0]>, fillcolor="#ffffff"] ;
405 -> 409 ;
410 [label=<gini = 0.5<br/>samples = 2<br/>value = [0, 0, 0, 0, 0, 0, 0, 0, 0, 0, 0, 0, 1, 0<br/>0, 0, 0, 0, 0, 0, 0, 0, 1, 0, 0, 0, 0, 0<br/>0, 0, 0]>, fillcolor="#ffffff"] ;
409 -> 410 ;
411 [label=<gini = 0.667<br/>samples = 3<br/>value = [1, 0, 0, 0, 0, 1, 0, 0, 0, 0, 0, 0, 0, 0<br/>0, 0, 0, 1, 0, 0, 0, 0, 0, 0, 0, 0, 0, 0<br/>0, 0, 0]>, fillcolor="#ffffff"] ;
409 -> 411 ;
412 [label=<X<SUB>1</SUB> &le; 5.5<br/>gini = 0.5<br/>samples = 2<br/>value = [0, 0, 0, 0, 0, 0, 0, 0, 0, 0, 0, 0, 1, 0<br/>0, 0, 0, 0, 0, 0, 0, 0, 0, 0, 0, 0, 0, 0<br/>0, 1, 0]>, fillcolor="#ffffff"] ;
404 -> 412 ;
413 [label=<gini = 0.0<br/>samples = 1<br/>value = [0, 0, 0, 0, 0, 0, 0, 0, 0, 0, 0, 0, 0, 0<br/>0, 0, 0, 0, 0, 0, 0, 0, 0, 0, 0, 0, 0, 0<br/>0, 1, 0]>, fillcolor="#e53c39"] ;
412 -> 413 ;
414 [label=<gini = 0.0<br/>samples = 1<br/>value = [0, 0, 0, 0, 0, 0, 0, 0, 0, 0, 0, 0, 1, 0<br/>0, 0, 0, 0, 0, 0, 0, 0, 0, 0, 0, 0, 0, 0<br/>0, 0, 0]>, fillcolor="#39e5b7"] ;
412 -> 414 ;
415 [label=<X<SUB>2</SUB> &le; 7.5<br/>gini = 0.444<br/>samples = 3<br/>value = [0, 0, 0, 0, 0, 0, 0, 0, 0, 0, 0, 0, 0, 0<br/>0, 0, 0, 2, 0, 0, 0, 0, 0, 0, 0, 1, 0, 0<br/>0, 0, 0]>, fillcolor="#9cb6f2"] ;
403 -> 415 ;
416 [label=<gini = 0.0<br/>samples = 1<br/>value = [0, 0, 0, 0, 0, 0, 0, 0, 0, 0, 0, 0, 0, 0<br/>0, 0, 0, 0, 0, 0, 0, 0, 0, 0, 0, 1, 0, 0<br/>0, 0, 0]>, fillcolor="#e539ba"] ;
415 -> 416 ;
417 [label=<gini = 0.0<br/>samples = 2<br/>value = [0, 0, 0, 0, 0, 0, 0, 0, 0, 0, 0, 0, 0, 0<br/>0, 0, 0, 2, 0, 0, 0, 0, 0, 0, 0, 0, 0, 0<br/>0, 0, 0]>, fillcolor="#396de5"] ;
415 -> 417 ;
418 [label=<X<SUB>2</SUB> &le; 5.0<br/>gini = 0.89<br/>samples = 51<br/>value = [2, 0, 4, 1, 0, 3, 0, 0, 0, 0, 1, 0, 7, 0<br/>0, 4, 12, 5, 0, 1, 2, 1, 1, 0, 0, 1, 0, 1<br/>3, 2, 0]>, fillcolor="#e8f2fc"] ;
2 -> 418 ;
419 [label=<X<SUB>2</SUB> &le; 1.5<br/>gini = 0.912<br/>samples = 31<br/>value = [2, 0, 1, 1, 0, 3, 0, 0, 0, 0, 1, 0, 5, 0<br/>0, 3, 3, 4, 0, 1, 1, 1, 1, 0, 0, 1, 0, 1<br/>0, 2, 0]>, fillcolor="#f8fefc"] ;
418 -> 419 ;
420 [label=<X<SUB>1</SUB> &le; 1.5<br/>gini = 0.78<br/>samples = 10<br/>value = [0, 0, 0, 0, 0, 0, 0, 0, 0, 0, 1, 0, 3, 0<br/>0, 1, 3, 0, 0, 0, 0, 1, 0, 0, 0, 1, 0, 0<br/>0, 0, 0]>, fillcolor="#ffffff"] ;
419 -> 420 ;
421 [label=<gini = 0.0<br/>samples = 1<br/>value = [0, 0, 0, 0, 0, 0, 0, 0, 0, 0, 1, 0, 0, 0<br/>0, 0, 0, 0, 0, 0, 0, 0, 0, 0, 0, 0, 0, 0<br/>0, 0, 0]>, fillcolor="#39e575"] ;
420 -> 421 ;
422 [label=<X<SUB>1</SUB> &le; 4.5<br/>gini = 0.741<br/>samples = 9<br/>value = [0, 0, 0, 0, 0, 0, 0, 0, 0, 0, 0, 0, 3, 0<br/>0, 1, 3, 0, 0, 0, 0, 1, 0, 0, 0, 1, 0, 0<br/>0, 0, 0]>, fillcolor="#ffffff"] ;
420 -> 422 ;
423 [label=<X<SUB>1</SUB> &le; 3.5<br/>gini = 0.611<br/>samples = 6<br/>value = [0, 0, 0, 0, 0, 0, 0, 0, 0, 0, 0, 0, 3, 0<br/>0, 0, 2, 0, 0, 0, 0, 1, 0, 0, 0, 0, 0, 0<br/>0, 0, 0]>, fillcolor="#cef8ed"] ;
422 -> 423 ;
424 [label=<X<SUB>2</SUB> &le; 0.5<br/>gini = 0.64<br/>samples = 5<br/>value = [0, 0, 0, 0, 0, 0, 0, 0, 0, 0, 0, 0, 2, 0<br/>0, 0, 2, 0, 0, 0, 0, 1, 0, 0, 0, 0, 0, 0<br/>0, 0, 0]>, fillcolor="#ffffff"] ;
423 -> 424 ;
425 [label=<X<SUB>1</SUB> &le; 2.5<br/>gini = 0.667<br/>samples = 3<br/>value = [0, 0, 0, 0, 0, 0, 0, 0, 0, 0, 0, 0, 1, 0<br/>0, 0, 1, 0, 0, 0, 0, 1, 0, 0, 0, 0, 0, 0<br/>0, 0, 0]>, fillcolor="#ffffff"] ;
424 -> 425 ;
426 [label=<gini = 0.5<br/>samples = 2<br/>value = [0, 0, 0, 0, 0, 0, 0, 0, 0, 0, 0, 0, 1, 0<br/>0, 0, 0, 0, 0, 0, 0, 1, 0, 0, 0, 0, 0, 0<br/>0, 0, 0]>, fillcolor="#ffffff"] ;
425 -> 426 ;
427 [label=<gini = 0.0<br/>samples = 1<br/>value = [0, 0, 0, 0, 0, 0, 0, 0, 0, 0, 0, 0, 0, 0<br/>0, 0, 1, 0, 0, 0, 0, 0, 0, 0, 0, 0, 0, 0<br/>0, 0, 0]>, fillcolor="#398fe5"] ;
425 -> 427 ;
428 [label=<X<SUB>1</SUB> &le; 2.5<br/>gini = 0.5<br/>samples = 2<br/>value = [0, 0, 0, 0, 0, 0, 0, 0, 0, 0, 0, 0, 1, 0<br/>0, 0, 1, 0, 0, 0, 0, 0, 0, 0, 0, 0, 0, 0<br/>0, 0, 0]>, fillcolor="#ffffff"] ;
424 -> 428 ;
429 [label=<gini = 0.0<br/>samples = 1<br/>value = [0, 0, 0, 0, 0, 0, 0, 0, 0, 0, 0, 0, 0, 0<br/>0, 0, 1, 0, 0, 0, 0, 0, 0, 0, 0, 0, 0, 0<br/>0, 0, 0]>, fillcolor="#398fe5"] ;
428 -> 429 ;
430 [label=<gini = 0.0<br/>samples = 1<br/>value = [0, 0, 0, 0, 0, 0, 0, 0, 0, 0, 0, 0, 1, 0<br/>0, 0, 0, 0, 0, 0, 0, 0, 0, 0, 0, 0, 0, 0<br/>0, 0, 0]>, fillcolor="#39e5b7"] ;
428 -> 430 ;
431 [label=<gini = 0.0<br/>samples = 1<br/>value = [0, 0, 0, 0, 0, 0, 0, 0, 0, 0, 0, 0, 1, 0<br/>0, 0, 0, 0, 0, 0, 0, 0, 0, 0, 0, 0, 0, 0<br/>0, 0, 0]>, fillcolor="#39e5b7"] ;
423 -> 431 ;
432 [label=<X<SUB>1</SUB> &le; 5.5<br/>gini = 0.667<br/>samples = 3<br/>value = [0, 0, 0, 0, 0, 0, 0, 0, 0, 0, 0, 0, 0, 0<br/>0, 1, 1, 0, 0, 0, 0, 0, 0, 0, 0, 1, 0, 0<br/>0, 0, 0]>, fillcolor="#ffffff"] ;
422 -> 432 ;
433 [label=<gini = 0.0<br/>samples = 1<br/>value = [0, 0, 0, 0, 0, 0, 0, 0, 0, 0, 0, 0, 0, 0<br/>0, 0, 0, 0, 0, 0, 0, 0, 0, 0, 0, 1, 0, 0<br/>0, 0, 0]>, fillcolor="#e539ba"] ;
432 -> 433 ;
434 [label=<X<SUB>2</SUB> &le; 0.5<br/>gini = 0.5<br/>samples = 2<br/>value = [0, 0, 0, 0, 0, 0, 0, 0, 0, 0, 0, 0, 0, 0<br/>0, 1, 1, 0, 0, 0, 0, 0, 0, 0, 0, 0, 0, 0<br/>0, 0, 0]>, fillcolor="#ffffff"] ;
432 -> 434 ;
435 [label=<gini = 0.0<br/>samples = 1<br/>value = [0, 0, 0, 0, 0, 0, 0, 0, 0, 0, 0, 0, 0, 0<br/>0, 1, 0, 0, 0, 0, 0, 0, 0, 0, 0, 0, 0, 0<br/>0, 0, 0]>, fillcolor="#39aee5"] ;
434 -> 435 ;
436 [label=<gini = 0.0<br/>samples = 1<br/>value = [0, 0, 0, 0, 0, 0, 0, 0, 0, 0, 0, 0, 0, 0<br/>0, 0, 1, 0, 0, 0, 0, 0, 0, 0, 0, 0, 0, 0<br/>0, 0, 0]>, fillcolor="#398fe5"] ;
434 -> 436 ;
437 [label=<X<SUB>1</SUB> &le; 1.5<br/>gini = 0.893<br/>samples = 21<br/>value = [2, 0, 1, 1, 0, 3, 0, 0, 0, 0, 0, 0, 2, 0<br/>0, 2, 0, 4, 0, 1, 1, 0, 1, 0, 0, 0, 0, 1<br/>0, 2, 0]>, fillcolor="#f4f7fe"] ;
419 -> 437 ;
438 [label=<X<SUB>2</SUB> &le; 2.5<br/>gini = 0.88<br/>samples = 10<br/>value = [1, 0, 1, 0, 0, 2, 0, 0, 0, 0, 0, 0, 1, 0<br/>0, 1, 0, 0, 0, 1, 1, 0, 1, 0, 0, 0, 0, 1<br/>0, 0, 0]>, fillcolor="#f5fce9"] ;
437 -> 438 ;
439 [label=<X<SUB>1</SUB> &le; 0.5<br/>gini = 0.8<br/>samples = 5<br/>value = [1, 0, 1, 0, 0, 0, 0, 0, 0, 0, 0, 0, 0, 0<br/>0, 0, 0, 0, 0, 1, 0, 0, 1, 0, 0, 0, 0, 1<br/>0, 0, 0]>, fillcolor="#ffffff"] ;
438 -> 439 ;
440 [label=<gini = 0.0<br/>samples = 1<br/>value = [0, 0, 0, 0, 0, 0, 0, 0, 0, 0, 0, 0, 0, 0<br/>0, 0, 0, 0, 0, 1, 0, 0, 0, 0, 0, 0, 0, 0<br/>0, 0, 0]>, fillcolor="#4739e5"] ;
439 -> 440 ;
441 [label=<gini = 0.75<br/>samples = 4<br/>value = [1, 0, 1, 0, 0, 0, 0, 0, 0, 0, 0, 0, 0, 0<br/>0, 0, 0, 0, 0, 0, 0, 0, 1, 0, 0, 0, 0, 1<br/>0, 0, 0]>, fillcolor="#ffffff"] ;
439 -> 441 ;
442 [label=<X<SUB>1</SUB> &le; 0.5<br/>gini = 0.72<br/>samples = 5<br/>value = [0, 0, 0, 0, 0, 2, 0, 0, 0, 0, 0, 0, 1, 0<br/>0, 1, 0, 0, 0, 0, 1, 0, 0, 0, 0, 0, 0, 0<br/>0, 0, 0]>, fillcolor="#e8f8ce"] ;
438 -> 442 ;
443 [label=<gini = 0.0<br/>samples = 1<br/>value = [0, 0, 0, 0, 0, 0, 0, 0, 0, 0, 0, 0, 1, 0<br/>0, 0, 0, 0, 0, 0, 0, 0, 0, 0, 0, 0, 0, 0<br/>0, 0, 0]>, fillcolor="#39e5b7"] ;
442 -> 443 ;
444 [label=<X<SUB>2</SUB> &le; 3.5<br/>gini = 0.625<br/>samples = 4<br/>value = [0, 0, 0, 0, 0, 2, 0, 0, 0, 0, 0, 0, 0, 0<br/>0, 1, 0, 0, 0, 0, 1, 0, 0, 0, 0, 0, 0, 0<br/>0, 0, 0]>, fillcolor="#e0f6bd"] ;
442 -> 444 ;
445 [label=<gini = 0.5<br/>samples = 2<br/>value = [0, 0, 0, 0, 0, 1, 0, 0, 0, 0, 0, 0, 0, 0<br/>0, 0, 0, 0, 0, 0, 1, 0, 0, 0, 0, 0, 0, 0<br/>0, 0, 0]>, fillcolor="#ffffff"] ;
444 -> 445 ;
446 [label=<gini = 0.5<br/>samples = 2<br/>value = [0, 0, 0, 0, 0, 1, 0, 0, 0, 0, 0, 0, 0, 0<br/>0, 1, 0, 0, 0, 0, 0, 0, 0, 0, 0, 0, 0, 0<br/>0, 0, 0]>, fillcolor="#ffffff"] ;
444 -> 446 ;
447 [label=<X<SUB>2</SUB> &le; 3.5<br/>gini = 0.793<br/>samples = 11<br/>value = [1, 0, 0, 1, 0, 1, 0, 0, 0, 0, 0, 0, 1, 0<br/>0, 1, 0, 4, 0, 0, 0, 0, 0, 0, 0, 0, 0, 0<br/>0, 2, 0]>, fillcolor="#d3dff9"] ;
437 -> 447 ;
448 [label=<X<SUB>1</SUB> &le; 5.0<br/>gini = 0.741<br/>samples = 9<br/>value = [0, 0, 0, 1, 0, 1, 0, 0, 0, 0, 0, 0, 1, 0<br/>0, 1, 0, 4, 0, 0, 0, 0, 0, 0, 0, 0, 0, 0<br/>0, 1, 0]>, fillcolor="#b5c8f5"] ;
447 -> 448 ;
449 [label=<X<SUB>1</SUB> &le; 3.5<br/>gini = 0.56<br/>samples = 5<br/>value = [0, 0, 0, 0, 0, 0, 0, 0, 0, 0, 0, 0, 1, 0<br/>0, 0, 0, 3, 0, 0, 0, 0, 0, 0, 0, 0, 0, 0<br/>0, 1, 0]>, fillcolor="#9cb6f2"] ;
448 -> 449 ;
450 [label=<X<SUB>2</SUB> &le; 2.5<br/>gini = 0.5<br/>samples = 2<br/>value = [0, 0, 0, 0, 0, 0, 0, 0, 0, 0, 0, 0, 1, 0<br/>0, 0, 0, 1, 0, 0, 0, 0, 0, 0, 0, 0, 0, 0<br/>0, 0, 0]>, fillcolor="#ffffff"] ;
449 -> 450 ;
451 [label=<gini = 0.0<br/>samples = 1<br/>value = [0, 0, 0, 0, 0, 0, 0, 0, 0, 0, 0, 0, 1, 0<br/>0, 0, 0, 0, 0, 0, 0, 0, 0, 0, 0, 0, 0, 0<br/>0, 0, 0]>, fillcolor="#39e5b7"] ;
450 -> 451 ;
452 [label=<gini = 0.0<br/>samples = 1<br/>value = [0, 0, 0, 0, 0, 0, 0, 0, 0, 0, 0, 0, 0, 0<br/>0, 0, 0, 1, 0, 0, 0, 0, 0, 0, 0, 0, 0, 0<br/>0, 0, 0]>, fillcolor="#396de5"] ;
450 -> 452 ;
453 [label=<X<SUB>2</SUB> &le; 2.5<br/>gini = 0.444<br/>samples = 3<br/>value = [0, 0, 0, 0, 0, 0, 0, 0, 0, 0, 0, 0, 0, 0<br/>0, 0, 0, 2, 0, 0, 0, 0, 0, 0, 0, 0, 0, 0<br/>0, 1, 0]>, fillcolor="#9cb6f2"] ;
449 -> 453 ;
454 [label=<gini = 0.0<br/>samples = 1<br/>value = [0, 0, 0, 0, 0, 0, 0, 0, 0, 0, 0, 0, 0, 0<br/>0, 0, 0, 1, 0, 0, 0, 0, 0, 0, 0, 0, 0, 0<br/>0, 0, 0]>, fillcolor="#396de5"] ;
453 -> 454 ;
455 [label=<gini = 0.5<br/>samples = 2<br/>value = [0, 0, 0, 0, 0, 0, 0, 0, 0, 0, 0, 0, 0, 0<br/>0, 0, 0, 1, 0, 0, 0, 0, 0, 0, 0, 0, 0, 0<br/>0, 1, 0]>, fillcolor="#ffffff"] ;
453 -> 455 ;
456 [label=<gini = 0.75<br/>samples = 4<br/>value = [0, 0, 0, 1, 0, 1, 0, 0, 0, 0, 0, 0, 0, 0<br/>0, 1, 0, 1, 0, 0, 0, 0, 0, 0, 0, 0, 0, 0<br/>0, 0, 0]>, fillcolor="#ffffff"] ;
448 -> 456 ;
457 [label=<X<SUB>1</SUB> &le; 4.0<br/>gini = 0.5<br/>samples = 2<br/>value = [1, 0, 0, 0, 0, 0, 0, 0, 0, 0, 0, 0, 0, 0<br/>0, 0, 0, 0, 0, 0, 0, 0, 0, 0, 0, 0, 0, 0<br/>0, 1, 0]>, fillcolor="#ffffff"] ;
447 -> 457 ;
458 [label=<gini = 0.0<br/>samples = 1<br/>value = [0, 0, 0, 0, 0, 0, 0, 0, 0, 0, 0, 0, 0, 0<br/>0, 0, 0, 0, 0, 0, 0, 0, 0, 0, 0, 0, 0, 0<br/>0, 1, 0]>, fillcolor="#e53c39"] ;
457 -> 458 ;
459 [label=<gini = 0.0<br/>samples = 1<br/>value = [1, 0, 0, 0, 0, 0, 0, 0, 0, 0, 0, 0, 0, 0<br/>0, 0, 0, 0, 0, 0, 0, 0, 0, 0, 0, 0, 0, 0<br/>0, 0, 0]>, fillcolor="#e58139"] ;
457 -> 459 ;
460 [label=<X<SUB>2</SUB> &le; 7.5<br/>gini = 0.735<br/>samples = 20<br/>value = [0, 0, 3, 0, 0, 0, 0, 0, 0, 0, 0, 0, 2, 0<br/>0, 1, 9, 1, 0, 0, 1, 0, 0, 0, 0, 0, 0, 0<br/>3, 0, 0]>, fillcolor="#b9d7f6"] ;
418 -> 460 ;
461 [label=<X<SUB>1</SUB> &le; 3.5<br/>gini = 0.676<br/>samples = 15<br/>value = [0, 0, 1, 0, 0, 0, 0, 0, 0, 0, 0, 0, 2, 0<br/>0, 1, 8, 1, 0, 0, 1, 0, 0, 0, 0, 0, 0, 0<br/>1, 0, 0]>, fillcolor="#a4cbf3"] ;
460 -> 461 ;
462 [label=<X<SUB>2</SUB> &le; 6.5<br/>gini = 0.75<br/>samples = 8<br/>value = [0, 0, 0, 0, 0, 0, 0, 0, 0, 0, 0, 0, 2, 0<br/>0, 1, 3, 1, 0, 0, 0, 0, 0, 0, 0, 0, 0, 0<br/>1, 0, 0]>, fillcolor="#deecfb"] ;
461 -> 462 ;
463 [label=<gini = 0.0<br/>samples = 1<br/>value = [0, 0, 0, 0, 0, 0, 0, 0, 0, 0, 0, 0, 0, 0<br/>0, 0, 0, 0, 0, 0, 0, 0, 0, 0, 0, 0, 0, 0<br/>1, 0, 0]>, fillcolor="#e53956"] ;
462 -> 463 ;
464 [label=<X<SUB>1</SUB> &le; 2.5<br/>gini = 0.694<br/>samples = 7<br/>value = [0, 0, 0, 0, 0, 0, 0, 0, 0, 0, 0, 0, 2, 0<br/>0, 1, 3, 1, 0, 0, 0, 0, 0, 0, 0, 0, 0, 0<br/>0, 0, 0]>, fillcolor="#d7e9fa"] ;
462 -> 464 ;
465 [label=<X<SUB>1</SUB> &le; 1.5<br/>gini = 0.56<br/>samples = 5<br/>value = [0, 0, 0, 0, 0, 0, 0, 0, 0, 0, 0, 0, 1, 0<br/>0, 1, 3, 0, 0, 0, 0, 0, 0, 0, 0, 0, 0, 0<br/>0, 0, 0]>, fillcolor="#9cc7f2"] ;
464 -> 465 ;
466 [label=<X<SUB>1</SUB> &le; 0.5<br/>gini = 0.5<br/>samples = 2<br/>value = [0, 0, 0, 0, 0, 0, 0, 0, 0, 0, 0, 0, 1, 0<br/>0, 0, 1, 0, 0, 0, 0, 0, 0, 0, 0, 0, 0, 0<br/>0, 0, 0]>, fillcolor="#ffffff"] ;
465 -> 466 ;
467 [label=<gini = 0.0<br/>samples = 1<br/>value = [0, 0, 0, 0, 0, 0, 0, 0, 0, 0, 0, 0, 0, 0<br/>0, 0, 1, 0, 0, 0, 0, 0, 0, 0, 0, 0, 0, 0<br/>0, 0, 0]>, fillcolor="#398fe5"] ;
466 -> 467 ;
468 [label=<gini = 0.0<br/>samples = 1<br/>value = [0, 0, 0, 0, 0, 0, 0, 0, 0, 0, 0, 0, 1, 0<br/>0, 0, 0, 0, 0, 0, 0, 0, 0, 0, 0, 0, 0, 0<br/>0, 0, 0]>, fillcolor="#39e5b7"] ;
466 -> 468 ;
469 [label=<gini = 0.444<br/>samples = 3<br/>value = [0, 0, 0, 0, 0, 0, 0, 0, 0, 0, 0, 0, 0, 0<br/>0, 1, 2, 0, 0, 0, 0, 0, 0, 0, 0, 0, 0, 0<br/>0, 0, 0]>, fillcolor="#9cc7f2"] ;
465 -> 469 ;
470 [label=<gini = 0.5<br/>samples = 2<br/>value = [0, 0, 0, 0, 0, 0, 0, 0, 0, 0, 0, 0, 1, 0<br/>0, 0, 0, 1, 0, 0, 0, 0, 0, 0, 0, 0, 0, 0<br/>0, 0, 0]>, fillcolor="#ffffff"] ;
464 -> 470 ;
471 [label=<X<SUB>1</SUB> &le; 4.5<br/>gini = 0.449<br/>samples = 7<br/>value = [0, 0, 1, 0, 0, 0, 0, 0, 0, 0, 0, 0, 0, 0<br/>0, 0, 5, 0, 0, 0, 1, 0, 0, 0, 0, 0, 0, 0<br/>0, 0, 0]>, fillcolor="#7bb4ee"] ;
461 -> 471 ;
472 [label=<X<SUB>2</SUB> &le; 6.5<br/>gini = 0.625<br/>samples = 4<br/>value = [0, 0, 1, 0, 0, 0, 0, 0, 0, 0, 0, 0, 0, 0<br/>0, 0, 2, 0, 0, 0, 1, 0, 0, 0, 0, 0, 0, 0<br/>0, 0, 0]>, fillcolor="#bddaf6"] ;
471 -> 472 ;
473 [label=<gini = 0.0<br/>samples = 1<br/>value = [0, 0, 0, 0, 0, 0, 0, 0, 0, 0, 0, 0, 0, 0<br/>0, 0, 1, 0, 0, 0, 0, 0, 0, 0, 0, 0, 0, 0<br/>0, 0, 0]>, fillcolor="#398fe5"] ;
472 -> 473 ;
474 [label=<gini = 0.667<br/>samples = 3<br/>value = [0, 0, 1, 0, 0, 0, 0, 0, 0, 0, 0, 0, 0, 0<br/>0, 0, 1, 0, 0, 0, 1, 0, 0, 0, 0, 0, 0, 0<br/>0, 0, 0]>, fillcolor="#ffffff"] ;
472 -> 474 ;
475 [label=<gini = 0.0<br/>samples = 3<br/>value = [0, 0, 0, 0, 0, 0, 0, 0, 0, 0, 0, 0, 0, 0<br/>0, 0, 3, 0, 0, 0, 0, 0, 0, 0, 0, 0, 0, 0<br/>0, 0, 0]>, fillcolor="#398fe5"] ;
471 -> 475 ;
476 [label=<X<SUB>1</SUB> &le; 4.5<br/>gini = 0.64<br/>samples = 5<br/>value = [0, 0, 2, 0, 0, 0, 0, 0, 0, 0, 0, 0, 0, 0<br/>0, 0, 1, 0, 0, 0, 0, 0, 0, 0, 0, 0, 0, 0<br/>2, 0, 0]>, fillcolor="#ffffff"] ;
460 -> 476 ;
477 [label=<X<SUB>1</SUB> &le; 2.0<br/>gini = 0.444<br/>samples = 3<br/>value = [0, 0, 2, 0, 0, 0, 0, 0, 0, 0, 0, 0, 0, 0<br/>0, 0, 0, 0, 0, 0, 0, 0, 0, 0, 0, 0, 0, 0<br/>1, 0, 0]>, fillcolor="#f2e19c"] ;
476 -> 477 ;
478 [label=<gini = 0.0<br/>samples = 1<br/>value = [0, 0, 0, 0, 0, 0, 0, 0, 0, 0, 0, 0, 0, 0<br/>0, 0, 0, 0, 0, 0, 0, 0, 0, 0, 0, 0, 0, 0<br/>1, 0, 0]>, fillcolor="#e53956"] ;
477 -> 478 ;
479 [label=<gini = 0.0<br/>samples = 2<br/>value = [0, 0, 2, 0, 0, 0, 0, 0, 0, 0, 0, 0, 0, 0<br/>0, 0, 0, 0, 0, 0, 0, 0, 0, 0, 0, 0, 0, 0<br/>0, 0, 0]>, fillcolor="#e5c339"] ;
477 -> 479 ;
480 [label=<X<SUB>1</SUB> &le; 5.5<br/>gini = 0.5<br/>samples = 2<br/>value = [0, 0, 0, 0, 0, 0, 0, 0, 0, 0, 0, 0, 0, 0<br/>0, 0, 1, 0, 0, 0, 0, 0, 0, 0, 0, 0, 0, 0<br/>1, 0, 0]>, fillcolor="#ffffff"] ;
476 -> 480 ;
481 [label=<gini = 0.0<br/>samples = 1<br/>value = [0, 0, 0, 0, 0, 0, 0, 0, 0, 0, 0, 0, 0, 0<br/>0, 0, 1, 0, 0, 0, 0, 0, 0, 0, 0, 0, 0, 0<br/>0, 0, 0]>, fillcolor="#398fe5"] ;
480 -> 481 ;
482 [label=<gini = 0.0<br/>samples = 1<br/>value = [0, 0, 0, 0, 0, 0, 0, 0, 0, 0, 0, 0, 0, 0<br/>0, 0, 0, 0, 0, 0, 0, 0, 0, 0, 0, 0, 0, 0<br/>1, 0, 0]>, fillcolor="#e53956"] ;
480 -> 482 ;
483 [label=<X<SUB>1</SUB> &le; 4.5<br/>gini = 0.883<br/>samples = 704<br/>value = [58, 0, 28, 2, 1, 31, 3, 1, 0, 6, 11, 0, 176<br/>1, 3, 25, 66, 99, 2, 1, 12, 1, 7, 1, 8, 30<br/>3, 44, 57, 24, 3]>, fillcolor="#e6fcf6"] ;
1 -> 483 ;
484 [label=<X<SUB>2</SUB> &le; 3.5<br/>gini = 0.873<br/>samples = 512<br/>value = [35, 0, 19, 2, 1, 25, 3, 1, 0, 3, 10, 0, 143<br/>1, 3, 16, 44, 68, 1, 1, 7, 1, 6, 1, 6, 22, 2<br/>29, 44, 15, 3]>, fillcolor="#defbf3"] ;
483 -> 484 ;
485 [label=<X<SUB>2</SUB> &le; 2.5<br/>gini = 0.888<br/>samples = 244<br/>value = [20, 0, 10, 2, 1, 11, 1, 1, 0, 1, 3, 0, 55, 1<br/>0, 9, 18, 40, 0, 1, 4, 1, 3, 1, 5, 8, 1, 12<br/>26, 6, 3]>, fillcolor="#f0fdfa"] ;
484 -> 485 ;
486 [label=<X<SUB>2</SUB> &le; 0.5<br/>gini = 0.881<br/>samples = 162<br/>value = [14, 0, 8, 1, 1, 6, 1, 0, 0, 0, 2, 0, 42, 1<br/>0, 8, 9, 20, 0, 1, 3, 1, 3, 1, 3, 5, 0, 5<br/>20, 4, 3]>, fillcolor="#e0fbf4"] ;
485 -> 486 ;
487 [label=<X<SUB>0</SUB> &le; 12.5<br/>gini = 0.896<br/>samples = 56<br/>value = [8, 0, 2, 0, 1, 5, 1, 0, 0, 0, 1, 0, 11, 0<br/>0, 3, 1, 7, 0, 0, 1, 1, 0, 0, 3, 3, 0, 0<br/>5, 1, 2]>, fillcolor="#f3fdfa"] ;
486 -> 487 ;
488 [label=<X<SUB>1</SUB> &le; 0.5<br/>gini = 0.75<br/>samples = 4<br/>value = [0, 0, 1, 0, 0, 0, 1, 0, 0, 0, 0, 0, 0, 0<br/>0, 0, 0, 0, 0, 0, 0, 1, 0, 0, 0, 0, 0, 0<br/>0, 0, 1]>, fillcolor="#ffffff"] ;
487 -> 488 ;
489 [label=<gini = 0.5<br/>samples = 2<br/>value = [0, 0, 1, 0, 0, 0, 1, 0, 0, 0, 0, 0, 0, 0<br/>0, 0, 0, 0, 0, 0, 0, 0, 0, 0, 0, 0, 0, 0<br/>0, 0, 0]>, fillcolor="#ffffff"] ;
488 -> 489 ;
490 [label=<X<SUB>1</SUB> &le; 1.5<br/>gini = 0.5<br/>samples = 2<br/>value = [0, 0, 0, 0, 0, 0, 0, 0, 0, 0, 0, 0, 0, 0<br/>0, 0, 0, 0, 0, 0, 0, 1, 0, 0, 0, 0, 0, 0<br/>0, 0, 1]>, fillcolor="#ffffff"] ;
488 -> 490 ;
